-1.0578400899987845
0.2902133065791711
0.003767039796065122
0.22504701637544255
0.07797351574601154
2.7985032426834797
0.44728774884109396
-0.6471674045307197
0.44205036117436886
0.43445844502600645
-3.5140496163317083
4.39161723372212
-2.2626324758538043
0.1953465369781839
-0.2160612883309939
0.08634665233700256
-0.6404908660415747
0.07184714975697656
0.3203551794498692
0.0008866317836316061
1.0603111367263813
-0.01627111602078068
0.02176460332162849
-1.8005678916592525
5.036131848858944
-0.24093898723709498
1.6707431760197933
2.7642790391270826
1.1642455841049533
9.948464712352131e-05
-0.17303803314874394
2.82549643568435
0.32491968499509355
0.33293259317493673
0.3894022151746543
0.5843948548530252
-0.13229162403451966
1.4850418130629601
4.645906309738947
0.019944669474053652
2.2502507568875876
-6.639108872941915
-0.4577006534158963
4.1386857887512045
1.079879752698179
0.518179857439998
-0.4353592471555631
-0.004058149320361313
-0.031780797665468714
-0.5558211412907256
-0.3457922949235642
1.1020498642382526
-1.3208745698033102
1.1001408568136755
-1.3100496377927033
0.5676011359572364
0.010100577362763168
-0.5285309772474779
-0.465418804829992
0.012525280140410315
0.044925904623203054
-0.5705203694729817
0.03581031624120837
-0.03604334735866963
0.0014073231991187803
-0.01888486669654539
-0.2352925818309554
0.03596632062891445
0.05384282348393308
0.05026498240670864
0.054631159708741155
0.44939363340524635
-0.05176230098632512
0.053674753438377396
0.01068667676991564
-0.009082956689415158
0.009490697323285531
0.03327506892749023
-0.25058566610664074
-0.9708193624106408
0.02818192364748954
0.23357324977244853
0.004651413215717405
-0.018616475677343838
0.005457483807781251
0.006675941924324914
0.2521781609601363
0.03844172872904801
0.010058503419566933
0.0012435046856177307
-0.38587674281461753
-0.9327753381872552
0.22398949505528715
0.007121364897529449
0.2849898925028286
-0.9243471563990724
0.0040512794196280195
-0.9580592816125256
0.3214524287623739
0.0015486325594532189
0.5004776401910264
0.8551096928841195
0.43780127181082684
0.02284068264470357
0.8592518950301502
0.4418908472656936
0.5640444487460681
0.07654965525614482
0.0780134963378793
0.8581657385986261
0.03547391280166287
0.07325138272681356
-0.15206790905723402
0.02017000974234665
0.6882783953669418
-1.4717685360346704
0.015902633786005895
-0.17871097762769478
1.0321261899463572
0.015150610085590146
0.06602157604984281
0.33012607278900064
0.16983130913425007
0.7533634667638004
-0.24538837189539806
0.24469220762253674
0.46265689244412345
0.1701180579578168
-0.5250163827901082
-0.523873988031752
0.008076092321625605
0.02642611783085517
0.35042830225588484
0.002976960567398983
0.24714435775637003
-0.0807606934581834
0.7550543141957581
0.42179828614804254
0.421361149245212
0.42092650609081894
0.00423795113557331
0.5392721537071146
0.4184410988118751
0.033051609719441044
-0.5101259099000927
-0.18914198337650043
-0.27188773821214723
-0.5977883477542681
-0.5972010270015717
5.160149758565997e-05
0.008267138846252218
1.7140145269248286
-0.21299789035816283
0.06949012215244393
0.002757117361764914
-0.27967461819309397
0.000579764852805533
-0.03573388876350228
-0.27326031025085196
0.032069548474580614
0.018446658932990335
0.00037170128309291353
-1.0317403468691464
-0.7916079367667667
0.0650527010372915
0.17484266860207875
0.0007019978689544614
0.07568079352952807
0.00636615078457875
0.21560424443632598
0.1921295799959637
0.9216206294436189
-0.144007221947198
0.32853093370224806
0.06272789868196428
-0.31723438226731265
1.5776379602180999
-0.23970531268679332
1.1634771656208982
0.6678162005369239
-0.3577855480771449
-1.476265710372082
-0.40404933261369896
-3.185809720270383
5.695361987534193
0.21035548441681257
-0.03613568860603836
1.3615835511931405
0.17147933288614295
0.17141797807544765
0.17341816855172915
-0.0611216828376046
0.17129337664489752
0.007367220815010133
-0.25437704514274273
1.3300808011039964
1.387892511217553
0.3335127766476224
-0.07897371847330907
-0.14350631172764441
-1.085696807889637
0.7553103103715674
0.1260220932375571
0.2877583832250927
-0.1996362142473295
0.04860904207841824
-0.49470809520686904
0.700070428819013
-0.4102826718115706
0.30532030562662293
-0.2036632310129449
1.1690469957517413
-0.01729443160401683
0.07455790267867128
-0.5931625303940112
-0.10971058144804054
-0.29913643293870573
0.08251021384637452
1.4527830272406232
0.2761914105695068
1.3490433502141532
-4.87889051893219
-0.9230333809291315
1.4057204047886427
0.044205076963316464
0.03488269287980385
0.2084693721826315
0.4994153033566468
0.25784182912485626
0.053541026178415885
0.11509761551884766
-0.47747676645595977
1.7598561585470085
-0.02118189654098718
1.73600078901113
0.05158733551136142
0.003677095892796408
0.06322106430777123
-1.3931307587975326
-0.3521184617572391
-1.3774754360634673
0.03186126942269899
0.23637265437620517
0.036521281770959535
-0.11952285811253587
0.04693507044407645
0.0012708497591531096
0.12718797437667173
0.8382068080006955
0.00041595788599124776
-0.015787190431614233
-0.06362489569537062
0.020743667279600767
-0.028513890472088556
0.006028152474669397
0.020719955171613055
-0.23960880892182793
-0.004069701045680008
0.4869503017917495
0.4242900567850683
-0.006589117557928392
-0.6807007967742638
0.13881697902464066
1.3069771677350392
1.0272368951649784
0.10888439829112696
0.13573178225081275
0.1625598074133608
0.32318719626379566
-1.0041540716967756
1.600154616799662
0.2901938725396236
0.13570647930330457
0.6049239079385661
-0.1639609393210244
0.04573484651936763
0.046927567700932565
-0.272028119050914
0.1548730643308789
0.10632229749881396
0.005194088347141479
0.046078440983502326
0.0023931676424186767
0.16537481944268323
0.46523646022441467
0.08142067688086943
1.1373873114936848
0.049030888648695516
0.005057017838500206
0.009537896483838923
0.009537896483838923
0.16614868762698748
0.49951806299053736
0.24851557543169922
0.009398229104350344
0.009537774886730304
-0.0867241650045621
0.0028846912034038567
0.0026020472899638573
-0.1381834271856091
0.005105098746042885
0.025621531932769476
0.0034757747483952018
0.09561012161367897
0.13191486379105766
-0.23728345299734324
0.0010502509383371733
0.2839743779451464
0.06232009557002153
0.4870816535413459
0.00434114039018738
0.09380589461913998
0.20789783083815166
0.2993237865389894
0.0006762786109034718
1.3891298403991856
-0.06497643748054951
0.04612520951562133
0.21313352017619952
0.039923934333219925
0.2131334771805368
0.0062309106147354285
-0.008190801390714948
0.23204815062025985
0.11863544913191514
0.019489950032401306
0.34511676856880646
-0.16705414403703311
-0.17009588294477115
0.25207933542938427
0.08829636590525583
-0.5918826785019529
0.20385860330432504
-0.059988972852275106
-0.04900480640480061
0.3894510582474993
-0.3413926777448546
-0.10753488267655355
0.20378697253024067
-0.06509374577181147
0.12681793220550905
0.2082775470334254
-0.47565246048693255
0.032124335697796096
0.20826636816111932
0.01866157275307477
-0.06183052545650919
-0.8055737019387555
0.3588876988951992
-0.29381185006799315
0.05012693945710204
0.20396091148375706
0.24637346702170884
-0.24152897372087984
0.24522279559827986
0.006787347045457448
0.06506321347682549
0.16377701462484232
0.5202128643558472
0.12066123277642815
0.5202129933428354
0.5215354109409822
0.8411516669314194
0.9761390437758038
0.6334176495682146
0.1764394415240145
-0.004916881201661519
0.001453543620514064
0.08739482747497514
0.8277161242720404
0.09094189978106866
0.029718577884033055
-0.03380133046467258
0.41173192661472874
0.026232271885501424
0.4315227011757783
0.19981241047313844
0.010455973464506092
0.5225031573173873
0.00732794293350488
0.00019325099706970984
-1.4544063714821172
0.7308616006902122
0.12144863384557217
7.366490665521077e-05
-1.1803950129949474
0.23800474823506187
7.366486466725889e-05
-0.5833587453729022
-0.47071002306643717
5.280847668952061e-06
-0.47033570282683423
-0.14752474010963232
0.0005506592244482112
-0.3714864814646365
-0.05510788486801718
0.00932445190616635
0.008376831530755652
-0.28257323528856715
0.27819303065157364
0.0016343240909082657
1.134950145348308
0.5608347365330155
0.9727658620531061
-0.085947647212543
0.06554900534647669
0.022405236008863533
0.006134251662299921
0.11152598731488564
0.04280827418144253
0.0002797689983754056
0.003073094166580684
0.02595619136074606
0.11579250067074315
0.0003757764657496862
-0.485760611804406
2.1340876551020664
-0.0055699006706020635
-0.009350178092229397
0.024622444405473624
0.000414295163097164
0.1559166765541458
0.15586349091936647
0.40463940508880925
0.15579582649516763
0.019413273986020153
0.014474278905770932
0.03693304048387214
0.14881186901760526
0.022613144223154233
0.014525399405125443
0.001639423779590686
4.738474730066093e-05
-0.24087795489387
0.040249408812748876
0.049189505022911584
-0.31024064327648243
0.04079403487236867
0.0052465595149317696
0.013753354505643236
0.5957831590321959
-1.1680831710080525e-05
0.0022090138599711747
4.8967563185964116e-06
0.4079853275613452
0.1370582306923392
1.2365105442143698
4.893390393798398e-06
-7.3321001711165945e-06
-7.3321001711165945e-06
0.07045381081318017
0.003705263426333032
0.008689986409302089
0.7315846157544396
-0.3434350362173445
0.06484473639119348
0.008646124787067003
0.0007672503792339832
0.01620798226454051
0.7229206457519238
2.8408819926296942e-05
0.038679129280732756
0.0123009314595887
0.0005282248938118337
0.19774459856832083
0.047152440391393526
0.16277422678332398
0.00020942068329901165
-6.402786868128197e-05
-0.14113612207586293
0.0026038772928581944
0.48897376367047585
-0.11778744567617334
-0.001090274357915845
0.04569814434678194
0.003343581560243241
0.6059001244605261
0.3867731163909145
0.0460346660243999
-0.07612982948201519
0.14579664768484715
0.01657923906317492
0.15418437055441447
0.0074275571659448624
0.31905253985657156
0.39251553111189824
0.021605328576327094
0.4665059071660958
0.1395512697014151
0.03240383706496627
0.005981062818694483
-0.1543728635397601
-0.4119582987789269
0.000671714352583308
-0.13383721061999238
0.002192372858982123
0.0051419853297131925
-0.13580370324562044
0.13990225404507906
0.00011737269028313572
0.21824955258490955
0.060052445199359164
0.26575464340189725
0.19253158944235552
0.6869589874651851
0.03185223227184193
0.2565885055566935
0.015664234928777464
0.23108820795663773
-0.061030736262045214
0.19251249936810974
-5.7294377618752466e-06
-0.5534759858635604
-0.4898859596506522
0.011558296937018493
0.22595474080669647
7.494895595685374e-05
0.16578759930258533
0.11267649750457943
7.49489717023357e-05
0.00428286279250878
0.006559945672583018
0.1122260964398011
-4.862598463687757e-06
0.11222611793763244
0.01024521141310264
-0.05329357539057134
-0.5762717272918103
0.005173405082049922
0.05682254652266154
-0.25276743801548635
0.13802585883067175
0.0003595730212070802
0.6430600288714887
-2.5218847936809647e-06
0.13058526591723726
0.20222685341077007
-0.24236207917949062
0.010597308269539365
-0.553477103750791
0.114077296195857
-0.2597391417291747
0.0004837675045276533
0.2930495154702124
-0.7721790566987952
-0.5191231392843177
0.6469994204764895
0.00043546989716536925
0.02588368455003387
0.008448138493755185
0.23392035375755238
-0.037124355059583496
0.002378058697817487
0.0022446775865311974
0.026843312807872385
0.011057367906862446
-0.32222951087246615
0.0160524172387628
0.01705633506004187
-0.06767937056608782
0.01179542204773897
0.004958014950639462
6.937960579028863e-05
-0.04934569214218421
0.019863288089834046
-0.08225184753465803
-0.08136936693187609
-0.25866242284561675
0.007259839147377667
0.06665392401031832
0.15331346115936087
0.04324004200089145
0.013120329363479953
0.10865698348210794
0.28892808022927335
-0.00940336977327379
-0.0586991513409246
0.05909337857236487
-0.31946443830538795
0.09789978038919395
0.0003367503859918016
0.4316890513948254
-0.44918226672733597
-0.313661034236842
0.4524086612575222
1.5857016549094145e-07
0.03449278133800866
-0.0006430077357326144
-0.02933755300827542
0.023219227208168287
0.02662369633717842
0.3753195447957413
0.0003435647576587457
0.20123922154035903
0.0823146265766808
0.6572913782520726
0.00017924688144609657
0.2648383413359316
0.47678608413009477
0.01599183500638192
0.30741503281630056
0.42181862309650703
0.3795099450796764
0.03768372056982802
0.019909611885566836
1.8844776694572075e-06
0.21355167449394108
0.05429467027787023
0.031382225184865234
0.49474898408211165
0.6092743810747917
0.1084140687366799
0.1993352876039823
-0.007003965912291454
0.1441358004765493
0.1872128109861096
0.11603460924749527
0.007380401001054186
0.08090413236346083
0.40127637034251246
-0.011864063279650129
0.007009150920492076
-0.12762396114552463
-0.5346283211641797
0.00025263499827408103
0.24163547397742663
0.08748664471270452
0.16359486349974722
0.37769475419114484
0.1831201613413587
0.06660863882856301
0.42771590819459276
-0.3165700132870296
0.04022832750187358
0.00031604333472550926
-0.031545603328727065
0.0024141152636552128
0.19905671870524727
-0.21955548134640493
0.0009370137149127087
0.008674246637711993
0.01933015933914732
0.3259938456367199
0.1908089252199882
0.00018115666144898816
-0.002198935072004107
0.007528635938146099
0.13668679116213825
0.026037504220628213
0.2485466397980113
0.0018608029045041894
0.2953200949203973
0.19745121766378024
0.002386298245540806
-0.43750554764266825
-0.026948047555018916
0.00345353423414466
3.783830620563436e-05
0.0033145003688739077
0.01829465314191681
0.03887504707958361
4.9665611573692696e-05
-0.037163172081329014
0.005666018146410245
0.0006026503439847623
0.11073306130308265
0.03800773588405355
-0.03872393344851144
7.357653251351069e-05
-0.18460671488192273
0.0012151070581048543
0.00016284363723451342
0.07018329822674649
1.2735920710172016e-05
0.06195153674922253
-0.0067657585201235555
0.003462158559458923
0.027306308914597503
0.10137105671637751
0.0008416455560936129
-0.05145186155260208
-0.0044534141580682175
0.08360468456417625
0.005926821102949706
8.053096024241388e-05
0.0006958002373185716
0.36132845517841283
0.003871151106102275
-0.29095139162318023
-0.008222141869798546
0.12258385907717052
-0.1275360457641867
-0.1952168835572647
0.028834466133296828
0.32826786473992203
0.717275186250364
-0.07037994426463459
0.08136220815403392
0.23545961998060588
0.008927751752312692
0.06447584972846628
0.7468829884966389
0.09663303142534825
0.3465126442567031
0.08484151392122966
0.05596820658112702
0.22507636091524602
0.4922689512610072
0.0047528198298468485
0.9279925006667605
1.4854420166915179
0.00016419016985703413
0.008965290996706881
0.4108613074403985
-0.6826251536504304
0.8680986825905331
-0.0081553615439143
4.8567553153355434e-05
-0.4771362838029141
0.003973754880715459
-0.015585130971067332
3.2047305635877055
-0.01853654942758427
0.003973755216619074
0.030164870175793123
0.00010698336992101971
0.08400436149586574
0.0639602081199747
0.03773178434628634
-0.3243161118818905
0.7098678934777028
0.7090517068123706
0.21000418835459392
0.03773144038098461
0.6075241996282863
0.6060606272694439
-0.20569219633649888
-0.21965871393258535
0.004852081027587501
-0.20858937307727102
0.002561011624841484
0.30317811122530713
-0.3603188095286914
0.008024667493595934
-0.013027977367195544
0.00010031588260670759
0.29157278643857887
0.2103805508881758
7.765568303173512e-05
0.00029517139677222033
0.000552791876499633
0.011599410195875924
-0.022903442876123895
-0.02290346437395525
0.0054206402197736585
0.0881657020862628
-0.10628578343225265
1.1494727043524653
1.425913489765723
1.5843210340479776
1.4846235512560617
0.0009006924570263894
-0.09498072960501518
0.05832094536830376
-1.0340121516957186
-1.0338908179355348
1.0436319152804043
0.6096517540064474
0.009690706428166678
-0.381536244672142
0.12357022257553145
0.17768543433168418
0.0034080404562444526
0.056480129064793695
0.13852346913311192
0.7841136207727689
0.6202431765728453
0.014022355525809566
0.2303438670437035
-0.09679621071427003
0.006763331280601808
0.20677029108126374
0.5077346631224962
0.2826541961214608
0.0005062748102243822
-0.009688311435391967
0.044135144517909376
0.09584742542512262
0.01522841208088867
0.013983929495871867
-0.024138724389319535
0.00038364328642424795
-0.002151927712414861
-0.07152681594637107
0.1818023012834597
5.168306180641594e-06
0.00660425270301155
0.04080634775527888
0.0089364959952175
-0.2879091475164053
0.0006435790657937204
0.00014819226683582373
7.563652441422009e-05
0.00579472364732801
0.010210540785580265
-0.10318535544490769
0.043416869725496535
0.010210533395700737
0.0011690490461074069
0.025633017149172405
0.0030831165227404368
0.0677258220051943
0.0015016915408279285
0.0021310887559977667
-0.0001394746757834678
0.01150490572922681
0.37731127587538354
0.00876452812411375
-0.01002312403541698
-0.03810933463505076
-0.054653221858172146
-0.03141817762058232
0.3510271458461891
0.03240648935991005
0.0033285572633530228
0.03546753600743635
0.018717530264484798
0.0741627617893983
-0.18158809689181007
-0.17596960641968865
0.002869089152295896
-0.17340716166207393
0.0007045050955245228
0.4862338650639177
0.006333121382119102
0.535360107343601
0.00025114505580194557
0.007290935760436799
-0.1492749215561377
0.00023798124505912266
0.021853804542004515
-0.026505385709529403
-0.23258757420469106
-1.2539317848074942
0.00040283320801956843
-0.12940089664315485
0.7602833607039164
-0.005687368851984741
0.1273845182998609
0.1580970618528688
0.5145356310595405
-0.036923473948917894
0.04412435260656773
0.08417535524648607
0.041025808366695504
0.3089514828234462
0.0065993518692691894
0.21400766499487245
0.026548093838750696
0.009780750094809037
-0.011067604905432163
-0.3150641546939062
-0.33436368231059754
0.14450707877301508
0.14344161400417296
0.18338194043380324
0.01825281433125105
-0.03521582596175403
-0.004211658616015428
-0.03368498151413497
0.12395342141948515
0.1229679930767883
0.09966992257211509
0.1022902717384922
0.08506681119385993
-0.22812253912515945
-0.08175866578547757
0.04601545233762382
0.00010197183494355222
0.07871634643629288
-0.020361087841913067
0.7548540403988284
0.011574084406921916
0.586602166185524
0.35218003154624794
0.024158553451518232
0.024158553451518232
0.0007705665036968355
0.012698825414889947
0.024157228647660806
5.97046317018446e-05
0.014813960764598498
0.0034705867170620455
-1.485871215352167e-05
7.501342320845737e-05
0.18108975566310373
-0.049678951523893615
7.50133812205055e-05
1.9102416079374775e-05
4.832717803345088e-06
3.7143439717383476e-05
2.1882447557605117e-05
0.03598078060773152
0.30553590737731084
2.8107065637436442e-05
-1.404633188497237e-05
0.00860434173640133
0.012794392680576814
0.07537534159268004
0.0039312946483620135
0.007321893309399335
0.0015257855712258552
0.020134409333618045
0.27166254842867377
6.159207411434091e-05
0.6192178160084013
0.018022905773794513
0.002491879805700667
-0.1345160046451165
0.006055656934470077
-0.1221527845627829
-0.13101670589475797
0.002242339697371031
4.551155454933075e-05
0.0002956029279475725
-0.09869107256581373
0.003748336010976562
0.0004969624703307643
0.17352502352249333
0.0003688605042331906
0.001538608187871776
-0.35816771502519346
0.00023678840933442504
0.08739851972751085
0.0011198499154305049
0.01501962111189784
-3.9738014348570954e-05
0.0018570280196791966
0.010812847542154868
0.371663193638398
0.10402386760810499
0.0003127280080337425
2.3902205815557773e-06
-0.003326492463831824
0.001220767873776076
0.06018812876197424
0.06018812876197424
0.1825525755978487
2.110703690012203
0.3318736959935744
0.06018812876197424
0.060188150259805596
-0.24465222165621114
0.24103022403337768
0.05640741265022576
0.02695962413720512
0.6428708909512024
-0.5928352044137566
0.05640742339914144
-1.6816742213259825
-0.38160684355032115
0.056407401901310085
0.0004116246033943253
-0.04850966297850874
-0.031073481392590536
0.5793617395798624
0.5722749794727469
1.5418385675624502
0.8645363199518863
0.03600026301739958
0.42661483226810637
0.5717471647172488
0.1430399807698299
-0.5871991609623315
0.7611445638281119
0.025043804587316424
0.6382991191389791
-0.00040829806591940906
0.15476035120106968
0.9727183088501425
0.6306034974521464
0.6301345867545689
0.0316282893625872
0.024989861153981736
-1.0807248754445187
0.10911049098351748
0.04893699149578226
0.048992595636589344
0.05347717761928307
1.0417858535060431
-0.037633996085897306
0.4839101644724476
0.03350994617121935
0.04898030962596833
0.1867576374027698
0.04406758758286733
0.04117954473319334
0.04117955816933794
-1.1263332126008032
0.04407815645420863
0.013356723547934263
0.035015579037113484
0.044067595644554085
0.02472762523262083
0.025601501328401798
0.04590630247336217
-0.01125330182908682
0.02557455917125257
0.02711634870226169
0.025601528200690993
0.050123096719746824
0.053670658101503725
0.019574785849397227
0.05485920870378524
0.058381472512491796
0.05368502940176645
0.006955003257759489
0.09088196382724296
-0.3936943861922374
0.03334308537867755
0.006969121958503757
0.022738565258524857
0.0018411268464021086
0.11375251770861827
0.0038252898496472943
0.015196560356503094
0.00025049940706602824
1.5402128099374582e-05
0.013667871066477662
0.1207592413895886
0.009332205905214233
0.00013358515173840591
-0.2887666745114386
-0.026940257278380616
-0.007655696183157757
-0.08163995476071952
0.025872040787124673
0.4229257614114364
0.3306856613392455
0.030522365675129587
-0.10837421175734245
-0.06111307833060362
0.002824782793674595
0.008400938661394563
0.08978799293402032
0.00036117633114926686
0.002882017410628724
-0.008031108109509301
0.0075976291970457415
0.4260281564503506
0.3482576662236826
0.9915467974839519
0.4628425047200671
0.20221380422713583
0.2802080653804077
0.6862147325435762
-0.0441589130577044
0.046785692762886424
-0.06754907221022788
0.12079517501470324
0.026466256969229194
-0.01444789300500809
-0.02286138236907226
-0.07928566812968502
-0.03612954022627001
0.03132723373225185
0.017430649925186933
-0.011984963052363304
0.00033761993548107
0.1990156363495224
0.0007428762052211746
0.21927340830115857
0.07476934997344926
0.0451655248259755
0.03788329837446755
0.034399572115698863
-0.04349733610826897
0.3904221152899334
0.15144137626014081
0.043740683497553084
0.06646573736906954
0.0008365762666883472
0.05705585173747262
0.00028272732250639077
0.0006269084632985999
0.016737674049438905
0.19372775027693773
0.257825533768687
0.0012064348665254587
0.0009399953633509582
-0.005716496398052939
0.03956136265845409
0.4467248926204827
-9.996966570106287e-06
0.07786817637235806
0.11107157690455906
0.4681799862895944
0.20271784238115204
0.02351551031994219
0.33839405273790474
0.14292671944532107
0.004246314127875129
0.8032373176267843
0.02972002361319187
1.1663155672907382
1.1680802812712414
1.1709378590066524
1.1677959939493652
0.49063941564408214
0.5252956396194467
0.0129263732417405
-0.11108077797638022
-0.09208321964785697
0.056371935854027465
0.00019096750330119215
0.35267656695712024
0.3526765884549516
0.017983963795904223
0.35267688942459063
0.014683898884883499
0.08271181513439062
0.06300058254936511
0.00986976791181129
0.2142987671292891
0.0020548522394967946
0.017590474208802418
0.0008788376441017327
0.006875842868242042
0.39528191504668925
0.39542315579871035
0.0223965629775251
0.408135984363501
0.20963719887548404
0.0002747855743317156
0.13877245701589855
-0.007065418806842331
0.001961400830680601
0.011497193382227181
0.0010260818334813016
0.012589089734723795
0.0004436633841054858
-0.022242064781628525
0.004338224410905856
0.006228711789671859
0.027883869651857532
0.0027785559061347235
0.0016347352369329845
0.12562840345190077
0.6268595211341884
0.02321751006888858
0.00015697457181900056
-0.0186914842981803
-0.1465690325187877
0.36784401790635035
2.747602838073932e-06
0.0005263510974836954
-7.5752576488943955e-06
0.01358184883791368
0.0017049565594489452
0.24689478943213675
0.24431197547931044
0.00170483345077406
0.0013161760051253527
0.0013161760051253527
0.014165939541448654
0.15323743407876383
0.0014784273603107765
0.0010901399964698584
0.00020201486934201537
0.08169120559067664
0.01174261799946625
0.01072300004322365
0.34729125271282174
0.021258549745922516
0.011742619343080709
0.030142576924675032
0.01790946306133359
0.0009757816107545397
0.01150900912778724
0.010891215199140995
0.6902833691107004
0.009235018240488769
-0.025091003076062587
0.018036997602249583
0.002453927063956456
4.995305059521225e-05
0.06877857080678826
-0.013067967364364528
0.05387296881795462
0.00496944373523508
-0.11731338624798568
-0.07120902425432363
0.00021609655770670996
0.012036207164248122
0.15263379647206674
0.21761446365093592
0.012034413438944201
0.2085821928015975
0.15263388246339218
0.001994539905670536
0.013093858815006139
0.030016876417496757
0.025806321916663724
0.0021552081471186233
0.0005988680692802403
0.0009499808540889687
0.006120986156737667
0.0004729560687883921
0.0004729560687883921
0.0004729560687883921
0.00012075564906837834
0.06537699044886684
8.197074941816319e-06
0.03672931091055162
0.26112441898621197
-0.09529317908597018
0.29046928125714905
0.028214785769948934
0.015619973581240568
0.20563361474604872
-0.003991033762669332
0.016233291930121
0.007124408184281045
-0.011677807412380168
-0.07028238710593265
0.2401263692117682
0.011233302127851721
0.03833968389805013
0.031200517452541918
0.011865264470977249
-0.00033903921223020684
0.0015029337123960743
0.2532764851642089
2.4408262981233663e-05
0.0005206941447040459
0.00041000735345211756
0.04739573672332817
0.00030017537391835105
0.0013495461818023844
0.014688828606336746
8.195198474004739e-05
2.239809240966597e-05
0.10600021698941063
0.0007198695788007981
8.9238398083158e-06
-1.9600868177268047e-06
0.01716879021587479
0.0001391446819727272
0.00015573050029603258
0.001795264582236283
2.1864531823391243e-05
0.10128350679817268
1.17504897222342e-05
0.0001581644788840552
0.35915440099102475
6.660529385837722e-05
0.07502858157287791
0.4322611516829205
0.6429330196838265
0.003465172286692402
-0.48312549362788604
0.0008500606974316555
0.03024833281881106
0.1958170600131132
0.036209700264945605
0.0001812096292502732
-0.05347867171856244
0.26140608357266254
9.493220709968575e-06
0.0025548944841093306
0.00185741884353521
-0.08351392072018339
0.00015046538958022934
0.035662752439539154
0.019788920373094942
-2.7917718344228055e-05
0.0037751861305352877
0.06658731297985603
0.0037751881459569775
-1.2071315726108506e-05
0.00033769114704744284
-0.05615170132068196
0.003937906239215397
0.09028197010296102
0.0025623517123133928
-0.008885407070802796
0.01456994156808445
1.9176208592664216e-05
-0.04575482875361475
-0.05039308260931223
0.0009745174374996136
0.12973273716799466
0.1756164830418046
0.00034961053986669484
0.0010010610450096828
0.015622354466063451
0.3269403951514061
0.00018020046982103436
0.4860236592689006
0.005202158431491048
0.0005318434574920113
0.05165181288206145
0.02827224678593955
0.09666385931551541
1.4740883463584244e-05
-0.013552261103892977
-6.1023788179745545e-05
0.5369821617152135
0.006650088766695408
0.006650088766695408
0.5634620724945839
0.0074136883774901284
0.43136649793313214
0.0003082753326956755
0.11508867242100279
8.197813011282789e-06
0.5338883228131798
8.197777583948409e-06
0.0042439402970281615
0.5123791835960345
9.697694818900151e-06
0.110573493649829
0.0003176660221074843
0.009657759657996312
5.6247847600225126e-05
0.043656651162004165
-1.3659469329793253e-05
2.749983481138103e-07
0.0028160026090829878
-0.0018935597211802925
-0.20944707205495522
0.00041232168737128435
0.0027377145612536083
0.00015494005610808877
-0.42012399204623035
0.3718684979278655
0.24071310952301803
-0.006396617914263434
0.0024881546346106893
0.09347187206441736
0.0007107440852930053
-4.660851603442538e-05
0.0006783531096415525
0.008216178237018432
0.00011152998280440975
0.0870194807139249
-0.04218723139303233
6.630285332892839e-06
0.0018639889502921458
0.20488970378974164
-0.011844176442029657
-0.01504773221362715
0.0002577024402094645
0.012019655177717036
0.0015358383266627627
0.044389754083596085
0.007199406728009058
0.12388182289214783
-0.05480966157696323
0.0002844641121475747
1.084857016605474
0.02680094864395282
0.20638659778718882
-0.005507072250747899
0.22421790951346432
0.00010998924540749861
-0.004495359786083534
0.7646216230719307
0.018718543349787536
0.7645888603769414
0.5396564059448048
-5.064726495808567e-06
0.07970128570332635
0.001916849766275797
0.5330604843232516
-0.016951155576509124
2.259084597546987e-05
0.003326723901422536
0.04376918424747576
0.00026432950362311294
0.1318914311548776
0.008836603634584324
0.0878206350206801
0.0440286335124469
0.002138530196731925
-0.023975553162084526
-0.01965487870734982
0.009815724379199342
0.19709347225215423
0.0001226742150501989
0.005145020890681644
-0.04449506389773144
0.22248974184626938
0.021679539090174397
0.00030941767790824845
-2.030024837034504e-05
0.05878786214202277
0.002518331543572043
0.6363625944902638
0.0012356877046420394
0.0014615977494419213
6.319293825833106e-05
0.0003671459262185464
0.07266893660737746
7.771574942113323e-06
-0.04054278703006055
0.00018091260647873911
0.00012364561681371789
0.04394692831714247
0.004215196688791869
-0.0036630121260280957
-8.173119503150529e-06
2.468218614665218e-06
-0.050493520477416114
0.004370524230713798
0.004829395776950744
0.0036254785919953626
0.0002313393598984638
9.03781872791609e-06
-0.11839728540721718
0.0003172636305707304
0.015669045068543785
-0.036148057920755886
0.0002548195264400392
0.011491255949929035
0.16998759836822167
-0.016890918653044425
1.4514623724646476
0.0037315116066137383
-0.003547363198624076
-0.01607814611205477
-0.04270305304586153
0.021883482298194028
0.4571293700453928
0.009926564510451501
-0.0777804061013818
0.03278327110120343
0.051077616555408926
-0.38033954639177586
-0.033701268808617464
-0.1275475793507102
-0.051808139737237906
0.03481442651632699
-6.658307534318918e-07
-0.8129594108887335
-0.43907777004119336
0.03739342729131619
-0.047557948609838835
0.0006367619439159287
0.0007977058362680477
-0.09012024191765591
0.007939159869370082
0.0006367498513857899
0.013954935639442426
0.34519134454578687
3.99660141757234e-05
-0.157470013107823
8.211903905505936e-05
-0.00020381189070015792
0.00014244909179700753
0.0005478703846849524
0.04462109493406684
0.006071291904132304
0.14868792327091157
0.0035948962473707443
0.2260100547267802
0.10214854728526557
5.3253283274343225e-06
0.00016648242861050483
0.011235991372193142
0.050467411361232
0.012683434311252186
0.12963002052976683
0.007159507424816116
0.0025592046313447723
0.00435620130057163
-0.029189924713112138
0.04241668312157251
0.00012022545670311774
0.0002369741850274774
-0.0244165892340776
0.0016264918263180935
0.007555111861077751
0.0004189221094294708
-0.005448058352345292
5.447507690853497e-06
-1.1772158129646513e-05
-0.04234888702315661
-0.0664328295637185
0.00012211426372404989
0.07819885601430453
-0.1543995960930536
6.17074517575879e-05
0.14985482555701574
0.00446348790748106
0.504375927942471
0.2122517651252259
-1.3732419459798287e-05
0.5613134072460294
0.0007950757949387644
-0.46025334890699027
-0.015495756424425985
3.941264708527712e-05
0.0018311500051821834
-0.0402765014547176
-0.151896904557698
3.5291739548917095e-06
-0.015135142395928173
0.00411535202647202
-0.05522359694530082
0.005270673027739364
0.00471884082786769
-0.06976322522755624
0.0010594812337728356
0.0034329520760412076
0.03712094765331327
6.926191356119479e-05
0.00016921049081343058
-0.01916449167624588
0.005395808209133651
0.042772875314882906
0.004571967644030852
0.01606294177082693
0.0019550312583818
0.08202034276322318
0.00112866528592578
0.01116447211810895
0.011294104713004023
0.010688142653291354
-0.006074902196185963
8.057292720030875e-05
0.008753921631567569
0.038324638103328555
-0.0642673315132108
0.001041852592179879
0.19513259056051058
0.016653339400636513
0.10470243590599987
-0.3462227245030111
-0.043172748414283535
0.012366532091977182
0.04283484012654299
0.016780091957936862
0.0444044371024135
0.12600429303319277
0.25152909843578003
0.10025783451517392
0.03214059611998939
0.0006089696567051738
-0.0067844643206338056
-0.004971442025840515
-0.00479101408629022
0.0004782699380133053
-0.004971719146322862
0.0011775726843130836
0.16090228162000775
0.0002636904260016634
0.1247600308009474
0.11914455002521608
3.975062123112016e-05
0.0011954181516895012
0.95493169111526
-0.039705914076504284
0.0010376946092820172
-0.06951240465464635
0.07293228504151114
-0.3568891959986793
0.11044492586939338
0.01035405560507467
0.7241690678145369
0.11051092421166198
0.0016694221557806846
6.12045935489952e-05
0.00045005231285009906
2.7553835007833733e-05
2.168295886189644e-05
0.058177205493387334
-1.6000305519331486e-05
0.027809339357768782
-0.047409844675156756
0.0008744892038541849
0.0004754913852982549
0.004251133001135437
-0.8382153211419132
0.024103803849507627
0.06120526103146609
0.058420276098092715
-0.006850076373745197
0.06514697440225352
0.002655694624261952
6.674651508600068e-05
2.0885872704816074e-05
3.5826065103190036e-05
0.0004113992960445866
-4.727884384511661e-06
-0.26818318891689963
-4.727979513465106e-06
1.6920808700318602e-05
0.0006463667298943267
-0.12860649802990387
0.00036487190073317556
0.007524499621031402
0.0022301183481959
-0.03845730390786677
-0.002186767803310986
-0.029574434924778664
0.009372306078768926
-0.1677507812621843
0.0004780683958443255
0.010416336166132825
0.5605638638579066
0.0008708401989089009
0.23103207711896237
0.00015361281694945269
0.00029315471544386567
-0.010404450552620853
0.0003019918356982098
-0.014006740038557008
-1.0503907368949241e-07
2.1761736132347042e-05
0.014175464424354642
0.0040676930138697385
0.008834119963255262
0.17185905983033234
-0.018715227309300586
0.008834110557954043
0.002269268250423852
-0.04791220599832702
7.221504693162998e-05
-0.09612686498602765
0.00028948543031782805
3.8299934869736936e-05
-0.008164819917904525
0.0001657289128262314
-0.058709669154916426
0.060704995746853216
0.00016572890232924344
-1.6416736777492125e-05
-0.08916716781115262
0.06849596031575796
0.14035463291034234
0.0008747873183124676
0.05587109012796793
0.00011628912820318185
0.0037300507617922495
-0.08737723687446658
0.02730923530689109
0.11414453066342868
0.04004155165580765
0.0074696109549241985
0.039801498809179124
0.0028440992669568543
0.00018751798311524636
0.001691372617259703
0.001691372617259703
0.001691372617259703
0.00044324262283978853
0.0002057168630825603
0.013873239849439212
0.019466444841040417
-0.07169624572976013
0.0018519093524425308
2.3000729737385658e-05
0.06628693453120844
0.001778472928475919
0.38488711164589023
-0.1819701563507018
0.2948539144474023
0.012905304023395348
0.005751727312805078
-0.1895529359207371
-0.08795848448980448
-0.07118299575500711
0.0023350163444993046
0.05374454077342282
6.18282563436142e-05
0.0012450182673067692
0.17671370010756227
0.08709794242392321
0.009967155775091274
0.18387428376756074
0.009379028853718864
-4.544814749351186e-05
-0.1188488151081418
-0.19159871254841293
0.00419984152684091
0.3222855772166474
-0.18517182837482657
-0.18340724338131142
0.0019487033381312554
-0.025279977075384857
0.09584709220873658
0.049845403857639616
-0.1489317086785096
0.002124043513577461
0.14598983794634446
0.003810128839985785
0.05812777123017995
-0.015065997308594564
-0.009470689560363671
0.002511539572477422
0.6825903271636308
0.44764104420162887
0.009137728461064353
0.052705787060042815
-2.151952863198031e-05
-0.047184950486864434
0.015156794742948908
0.006988394092508841
-0.04751856995724909
0.00216972136665867
0.001651206942500093
0.21454898038846315
0.002868673303620568
0.057797236698595156
0.8569328809659161
0.0070410174246367105
0.018731053744023347
-0.04577901918835017
0.007656582968701269
0.12014721962866194
-0.04849733934668285
0.004637452389672171
0.0069465458765418635
-0.2642842777283457
-0.2219991183390205
0.003371083668718617
0.009225764767703674
-0.16590872883337113
0.09239610983435481
0.3509036408050383
0.017067488403673215
-0.26530116814723476
-0.429467465502305
-0.008084070704288288
0.13425692353050736
0.1246851108586653
0.12550193171002252
-2.3109049102632793
-0.05875290129377707
0.12606802335425313
-0.19240703100746814
-0.08370311238504817
0.11260049192181375
0.10184312759516458
0.02236407706711447
-0.17483935793604963
0.11586387347085123
0.3618009775116584
0.11258845313625335
0.2764904669015259
0.1356147480569006
0.5111360070042726
0.08344648739767166
0.3115953506173288
0.16333471824248588
-0.3009422077771025
0.03355837003635291
0.021918929534874208
0.17880963117579596
0.37460981539129323
0.37460899847370166
0.01444029083439417
0.0020487362744272936
0.13546175874004246
-0.3784357414423873
0.00037309419140827554
-0.009338354956789809
-0.11135876643366859
-0.06947472433073387
0.11629824790235228
0.013863991751111956
0.013483826788608638
0.08457767103697475
-0.4182057405541693
0.015182980445157231
0.013942840422074715
-0.21826945957674693
-0.10444479514609172
-0.001717158090310793
0.02032313476426524
-0.019191350529298594
0.015503724058172989
0.10619777131067361
0.05771653921413562
0.08896145506288934
0.00028483627235898157
0.02019459116888989
-0.8562135635286824
-0.5045904762994223
0.5092886983556925
0.487084663237736
0.11102276607846105
0.10032837964877471
0.026193814952431147
0.002245932522436712
0.27868434208942594
0.0006511198080340535
0.00459373386237706
0.001232128889817374
0.011183650870909074
0.0022005882216451643
0.004824555405859078
3.7941536209555735e-05
0.014521075653793595
0.00014900860709308387
0.0002606622549127411
7.997362266626881e-05
0.0013795870497996766
0.010520898258821262
0.006880108172344885
0.08402854655614332
0.006731207474288109
0.00045672839719755674
0.0025738592663067197
-0.7961466449143616
-0.3279090444367282
0.20609872032747584
-0.46924481687241143
-0.14133105366170023
0.002053065400216981
0.0011546628821097213
0.0009315291646634407
0.011989143036947947
0.00044031434108836683
-3.961271967594148e-05
0.00025272340390674496
0.0004432784385627343
0.00011475002833639367
0.0022746569841669505
3.176110126420395e-05
1.271808239124441e-05
0.00017786132102231195
0.002001694484717513
-0.03717041685049661
0.000850758621167652
-3.796645343474405e-05
0.0009381469697337017
0.0075878530582357585
0.10402311518400746
0.0024395021870671453
-0.4180478174850145
7.8032068280799e-05
0.000649924327068388
-0.014401456345660672
-0.02415451454645188
-0.04128864354010551
-0.0040954900457190555
0.016832326313678602
0.012321551910704259
0.3322087181974552
0.001986434551441396
0.0022042361349037
-0.008077618667652012
0.07004265941400342
0.08069350198627445
0.4170890572021171
0.010061387488005035
0.0037411077010860994
0.0009692374525518601
0.003306855202597272
0.3256218256650723
0.33475466336950277
0.3506601348692479
0.7427365727756621
0.2857788414158304
0.44462283467031205
0.43501033735262523
0.027642333454865314
-0.06642281157430574
0.02980645833139503
0.03757563484821858
0.010021073679751224
0.11486872810838061
0.0005424888728695754
0.08585222908806119
-0.036889273586456474
0.0012360152106666317
0.006083375700777107
0.008618842023652202
0.0014368690291635157
-0.03991761934525856
0.001730639749849278
-0.02450012980673421
-0.02450013518119205
-0.02450013518119205
0.00015555215647046133
0.00028258565515677873
0.007581335856298181
-0.06162665077282701
-0.06162664002391133
-0.06162664002391133
0.0008634392345603457
-0.001986389708308798
-0.017510150249162727
0.001692022254851048
0.03279824971520201
0.09474730615213163
0.08024193466414495
0.01997971093916695
4.160780607579959e-05
-0.0559515887574874
0.00050495865588504
0.003236016153333388
0.35222672483595724
0.8917496507458611
0.003235974837188747
-0.012938178238384881
0.0015886670638511845
0.044930849124415355
0.007097093845926435
0.2641483254428386
0.005021325056277489
0.2654393777050344
0.011502039799583917
0.11969629186701533
0.0003246993819374106
0.12233818186041301
0.010277255274355976
0.007730024935077528
-0.001631893996205791
0.20413126029943665
0.02198263701448874
0.04127534175695284
-0.001889041817558994
0.001327527531889528
0.12436511563890368
0.020229056223399905
0.45647746980729725
-0.00010723193859609485
0.029020860392856156
-0.09117760200407614
0.0076843178583818166
0.07004893140630207
0.18257323501378359
0.0010069897438138402
0.007644872025069079
0.019299960260547377
0.04465059264591873
0.0022203892358920127
0.00657624237236673
6.46172640586804e-05
0.015473335529934207
0.00883514312566645
0.43169386690904954
0.0015776160028705966
-1.5392121845594372e-05
0.00032244420904242976
0.047391034072718635
0.040924653008470056
1.8760918881945117e-06
0.001514411538919477
0.12027901208380125
0.04830449305048725
0.10450341973220457
0.0010490762833956356
-0.018708047033627065
0.0034247902900047533
0.16006732734790016
-0.011861276623260367
0.39798255861318793
0.0003380376106323048
0.0014828199718836925
-0.016148868602764262
0.014124103418011817
0.000648976323091049
0.00010788370707599736
5.722296529748469e-05
0.05362190101998412
0.00042728010516501725
0.0016652755936057318
0.0016652755936057318
0.0016652755936057318
0.000821771986665932
0.0002993080287965559
0.0028390734770697263
0.0010665004436629815
-8.973768075522431e-06
0.0005925444318007862
0.0005925444318007862
0.0005925444318007862
6.74996792211772e-05
0.02964941398609701
2.332948752779306e-05
0.07958245644049583
-0.04413903025092731
-0.0453856357467907
0.8323697168304117
0.004879663081123239
-0.36613846595774385
0.011744292143083241
0.7405218661891763
-0.20322680353854916
0.03366850880085702
0.012501182415072623
-0.05843652308414141
0.09201615716293615
0.009750202348256761
0.0001376954783108944
0.14778781982087402
-0.20747645184570643
-0.20747557043462075
-0.2126710158323667
-0.021739977555808074
-0.20747445254739016
0.016005597649294323
0.021872925519382865
0.6041726877195973
-0.0004214313934091738
0.0029553287104987606
0.002073017906994179
0.16808509403763022
0.0012962202232879086
0.0012962202232879086
0.0012962202232879086
0.00020310750081957335
-0.004674800504909442
0.02072500581836769
0.0018395129974840025
0.0018395129974840025
0.0018395129974840025
6.741953996653778e-05
0.00012202187973294615
0.6633382022650836
0.02480036314502012
0.027189753047433075
0.4023222398380719
0.3920515219198704
0.01813256083709307
-0.24173748118721963
-3.7343707158387006e-06
-2.2880612704071315e-06
0.06388048878684195
-2.2880647147313052e-06
0.017176520029862398
-1.4675135579448546e-05
0.008433520640239077
-0.34627646908140575
0.009392308467232945
0.00018983594899224995
0.00016211687827256965
0.013463926514843566
-4.7807439356082565e-06
0.0007071007067332721
0.0014470707578536609
0.0014470707578536609
0.0007071007067332721
8.499167758538773e-06
0.005061156842843822
3.983470472898844e-05
8.499167758538773e-06
-1.026011359328333e-05
-0.04130195069771602
5.1418697788696434e-05
0.12680734452356532
0.0026126109547991287
-0.12336858366631048
0.002612607931666594
0.025643271614730102
0.08871031739696693
0.0022915163225057304
0.08346551297842336
0.00229151699431296
0.0007511504349927388
-0.004563840791970354
0.03934868192560195
2.6097750570388107e-05
2.6097750570388107e-05
0.12376210146931595
2.6097763691623067e-05
5.371863935326622e-07
5.371863935326622e-07
5.371863935326622e-07
-1.32673235093576e-06
0.043299553372547823
0.04172123365160387
0.02584936326227106
-0.14190081068617738
0.0015560410816331108
0.0007139979836111851
0.02861175397488733
0.0011143580592776114
0.13449669959255717
7.765870616426982e-05
0.2239582587063242
-5.8551443100700956e-05
0.08938345749244396
0.009497069414861444
0.18699622033517924
0.016545460595653896
0.17371257060325923
-0.003676964554482956
0.008760748536638146
0.001330412775990282
0.16201924444386762
0.04421910161104854
0.0020824843426711626
0.0020824843426711626
0.0020824843426711626
0.021518166962701146
0.021518166962701146
0.012391998960449476
0.0042531504382469255
0.012784101937428703
0.016841972121885977
0.22410375602895413
0.007501073702923643
0.008112323557343114
0.07403268916076762
0.0001340546715132132
0.09533822779158056
0.17487379746188492
-0.2106518105242492
0.025693084777215162
-0.317764927247393
-1.2149772838426093e-05
7.461242252260924e-05
0.0004351795504781826
0.20678959613382308
0.20678903719020778
0.20678802679213398
0.1767294472690319
-0.03508547117408678
-0.05853994915080403
-0.058539900780683475
-0.32541748877801596
0.6220715241341679
-0.05853648262549758
-0.09183209273085023
-1.1363954015548337
0.26384193835032654
0.26384135790887986
0.007939428592262055
0.263840583986951
0.014365576465124418
-7.049088254272427e-06
0.010622097956323887
0.010622096612709426
0.041581387571392125
0.010622088551022667
0.008228161934385974
0.03643345775540487
-0.9585425528614501
0.0364334201342
9.80039341280564e-06
-0.01752490313593205
0.00062810831101126
-0.024944258879213893
4.683345074109126e-05
-0.006674357131069502
0.001436666479283691
0.04908612195191168
0.004468472717127162
0.16473279745809669
7.76559559534223e-05
0.027644319317036998
0.015702725452209236
0.37951342772835633
0.03220204498369689
0.08913256705158215
1.4093403003266541e-05
-0.0011936524743374301
-0.007869266388782329
0.005927768351143911
0.000958662283017776
-0.19818134851018693
1.1350452135032112e-05
-0.02341179671978516
4.468474354657285e-05
-0.0030160029804701454
0.007785097676365732
0.0001956641076456527
0.000128290680947257
-0.25315934348114
-0.0726980715433252
0.03548850982915485
-0.1685643451920908
0.01219309027581096
0.005326146837943839
0.0012458959834526766
-0.4133050089265082
0.018168368162448493
-0.10198644288791169
-0.19056509681672745
-0.04242346031290808
-0.06406172087964648
-0.13097718213180656
-0.2787169113039331
-0.11491349734218334
-0.14735951852673157
-0.4204720849315767
0.07828784628721036
0.21367950059919485
0.024769417016780492
0.25895331000171984
0.16492652516537795
0.1166525106652983
0.0001903229672459994
0.05203536644023255
0.010641018063340484
0.18699634932216738
0.010641016719726025
0.003677504015688592
0.2621355909819598
0.03171726619934843
0.009341094586673475
-0.2198876873343778
-0.26376269734394153
0.44599370838033947
0.018699259795059545
-0.8988341320828528
7.18203444385625e-05
0.09883057199349482
0.003001770744304018
0.27896577019973157
0.00017023474491136695
0.009203560866947163
0.0005231561082619904
1.4792800253948982e-05
6.48644510677143e-06
6.48644510677143e-06
-8.02467503568179e-06
0.008590115546500273
0.013043651973484338
0.00023143712884439495
-0.030301088496963228
3.1659385450796934e-05
-0.004576614198736682
0.0001281698501187608
0.0030528690740199405
-0.016398670715913572
-1.4108248368499865e-05
0.016663944549568235
0.342321577539996
0.04076085834412567
-0.08329494918443016
0.004084778751245006
0.0005710179226718074
0.06314362374476241
0.008211261951709783
0.020020973339229427
0.04301688376248128
0.2679177121974615
0.12662713895220812
0.02002095721585591
0.00225535461883652
0.00225535461883652
0.003951311480681477
0.00225535461883652
0.0023637943828561303
0.003735496431198085
0.0007917202018011535
0.09348971526444438
0.009742985794992822
0.6497019988478104
-0.124147063135441
0.009785789320840763
0.007804832685552239
0.13835156172465887
-2.973913295973838e-08
0.32978148405016566
-5.49875103383394e-06
-0.024997073676402293
0.06664782400067053
0.0022175753713094388
0.0022175753713094388
0.0022175753713094388
0.000802849360372221
-0.012133217471864884
0.0002637301466041332
1.198655517251631e-05
0.011457220852046177
1.0431272230590677e-05
4.58690163533359e-06
0.008212518231229758
-0.019137795400542806
0.0003318556195084868
0.0003395052994899487
-0.061416896432268456
0.00019131214041014772
0.00016831842528497147
0.007087512531213133
3.859701471864314e-06
0.18615872931897143
0.021484272944336573
0.001627423790897818
0.004912615225751446
0.018795899265085382
-0.2831985642071043
0.0011048581172150348
-3.538852965072034e-05
-0.001920860119534881
0.0001951613019219998
0.009821188859207615
0.024592911759645775
0.00025590991156217206
0.016084928677848172
3.211028356894952e-05
0.022606616944108204
1.556093046972044e-05
-0.08550454466151065
0.0008811276669967663
-0.1181019052043603
3.336146417701863e-05
0.22560428315990078
0.0003214089750950792
-0.001217292363047922
-0.37272832519085414
-0.3197638815983715
0.009882508064119735
-0.40753726976018484
-0.020248009248970772
0.008704432951974565
0.0029136225817609144
0.9121331205174467
0.00578721888876243
0.6283593388367003
0.6312078014916156
0.6311875505344765
0.22418344848979768
-2.2087598066198803e-06
0.047866238260426096
4.1489696591434026e-05
1.6932148071570708e-05
0.00046570365781355583
-3.0575754484359514e-06
0.002176901306428577
0.008959379093083471
0.00043889926313441706
-0.044268603054978914
0.22787630296478661
0.0001225093493571782
0.009087754736651339
7.238224295597957e-06
0.2940395765955669
0.036869366594619105
0.14147594904505215
0.07868472850082332
0.14694368597477664
0.005546819053699645
0.006171143956331683
0.3478519591502972
0.01188027398810841
-0.07223779222503791
-0.1884776143962174
0.09925125230642093
-0.04644050208477341
-0.3720420714182488
0.0016822231066434402
-0.009496152397992586
-0.08182366985304587
0.0003550133395736704
0.0032249289827141914
-0.0003836298082916974
0.00021438158080652295
0.07704314334942214
0.020254283928498342
0.007215541522250356
0.22427113814390637
0.018496590333547863
0.3893547049673534
0.42174772324868887
0.02248323685910212
0.39483695293324444
0.2274774107039417
-0.17191133180727897
0.3792793593405321
0.21470309834146759
-0.046571316388585936
-0.16946548053803354
0.009761759448033296
0.37015176710695297
0.20794542703677796
0.34758772930507786
-0.02848701549566232
0.04861776482349169
0.03628252685589924
0.009779252636493516
0.0016343837137999223
0.0017074422461996967
0.0037693172225745945
0.02186097406876236
0.002894102550887986
-1.3236700515147117e-05
0.00021149610577203356
6.803100001264432e-05
0.010104898426866096
3.4189027682601427e-06
-0.004871418662797503
7.049641183113623e-05
0.11632831261950623
0.027548718460988633
0.04773554219468604
0.00336835008510002
0.031575544433350713
0.05267055748890514
0.0003543419522232563
0.04161753348759144
0.0035269285022075936
0.0003185290844581886
0.09806541043089051
0.00016168900004903024
-0.05092210661782407
0.005288098699572977
-0.01493888331900451
-0.003390012509229205
0.0015145333039799024
0.004926299939025177
0.06143217064144821
0.17872375808843702
-0.05771437330762632
0.10040472919684211
0.08036466040890908
0.004850632275296151
-0.03233171452798961
0.0004600606450339274
-0.115190572141639
-0.003453172130047726
0.09623672965318195
0.1253459219478586
0.04505085001905488
0.021737585922069515
0.0018859044777952076
-0.10104367699154448
2.1646637626683614
0.8121299385636221
1.0560681527469449
0.8120783437683633
0.017386606243192538
0.8433503791313749
0.2713466377968701
0.7959419855598349
0.03890330329167459
-0.011901336488381263
-0.015339404040574794
-1.4610751707519736
-0.0119001702310301
0.03459756445527575
0.058341486546166194
0.02748743620547416
0.06181050022659935
0.03502199882700272
0.006526443989640728
0.0003928130772212644
0.0010442388514606004
0.043987599526842606
0.0006967350990669751
0.0018781521582653977
0.002458017026372287
0.013324703871741204
0.06451985041479796
0.011189394822725
9.988098583458826e-06
0.05258619462419909
-0.10638054587287805
0.017600782418938508
-0.04681922937980468
-0.054401143662127824
0.0024036056793019507
4.8844384968533615e-05
0.000101320297397385
0.07042073102517828
0.0004913865962861772
9.753901990672e-05
0.00015618488341419043
-2.1206902087832276e-05
8.694525233420415e-06
-0.00814167279979719
0.006021741418274148
0.005695751662599843
0.005695751662599843
0.005695751662599843
0.006326067406204807
0.0025821102347529474
0.001994238600127911
0.054101275786975
0.0002444434427797505
0.0002444434427797505
0.0016364268475379555
-9.438938817002344e-06
-1.2582324845858128e-05
0.009903588031380568
0.026874430918762876
0.10441504214749245
0.003312589749111979
0.2672249015862921
0.00014401554681443954
-0.04995923487467944
0.006649337014405113
3.972638368590275e-05
0.017983382010843103
0.43580373631671804
0.013371072006751169
3.7322768947700246e-06
0.005792482498408954
0.00011790325004297519
0.004335374268732866
0.6434233422214364
0.004335351763190664
0.7660329986962364
0.004924129329865265
0.003407326661062649
-0.061520494481581936
0.12203897504357443
0.06270931380675543
0.10146831290544044
0.5311935266568104
0.14851807965426886
0.06324615227696584
0.0593830188542492
0.052004302073920455
0.18087527179964644
0.08384372432550204
0.04718884159434021
0.06512871736897285
0.037131336480316954
0.07345644516567826
0.00956413660243287
4.0445206924942916e-05
0.0069450376693106644
0.0069450376693106644
0.13098254584073035
0.0069450376693106644
8.952374033133106e-05
0.015054056606889738
3.064669116085999e-06
7.789709800951032e-06
-0.021588127624011893
7.789708488827538e-06
-7.608519979517056e-06
9.811394912257546e-06
0.00012035256473041863
-0.07116385731064079
0.00012035259622138253
4.348734163210925e-05
0.006588975134795646
0.0031035320726508662
-2.023031350013374e-06
0.00012183450849772269
0.20523592636375984
0.0009521612884296196
-0.0191446653012761
0.0002110966114039588
0.03608796879488177
0.02231642174945195
0.3976864044884022
-3.788417279455924e-05
0.007438301378973178
0.0018331820541009228
0.047297803352577474
-0.0345206371529906
4.35977279575776e-05
-0.04564533492405138
-0.014744774025216633
0.014995539509933667
0.046079908210492494
0.2486964366869128
0.1439747279751006
0.020263764472127157
0.04990686078303388
0.30378826267490566
0.129908987138382
0.14409319177479807
0.14409290155407473
0.04169506810361245
-0.21668257565723578
0.0001015384038133779
0.005019554172419386
0.0005266684424239349
-0.08622155108187338
-0.002623852976984825
0.00031023247510827734
0.003104998963737425
0.021478980446979164
1.744801204825539e-05
0.0009444528043215626
0.009951412644465028
0.002673442427662318
0.0011438983469126997
0.07555083913896987
0.044865667699738356
0.0007398557599153965
9.206673013939826e-05
0.00010410204119677757
0.0001776688062629843
0.00010410204119677757
4.4959433976205626e-05
-2.0058494864707928e-05
0.000887453739777429
-0.00398340505566983
-0.10954188796537548
0.02850541495207572
0.011063081627353026
-0.0328265757952449
0.008143134652329524
0.0021183643911592237
-0.00016025449217035222
-0.00018126851735277198
0.003743311228800279
0.003743311228800279
0.008133537886049933
0.0017169659534430322
0.022380904494609825
0.20747296919702646
0.020575194149707127
-1.7782884990215723e-06
0.029875044475113334
0.0001649676922527897
1.1499657798143996e-06
0.10365289028127822
0.1819252258831639
1.1499460979619554e-06
0.0011230761856763536
0.00013591075942265
0.00013591075942265
0.01502652997745047
-0.0006404236292226776
0.06000307005518802
0.3675178098133263
0.2004050626880117
0.3699669717486009
-0.00037829460918723385
-0.01972301742745299
0.0005836398788957375
0.0019087000727694816
8.285377047936458e-05
9.65261235497647e-05
0.07239316780117679
0.004235569578943198
0.005422391621222093
0.02996623558850442
-0.026674759061111154
0.0017618109335109321
-0.01071938572032661
-9.6014489859231e-05
0.020556402357871446
0.0810678168514195
0.04407347530143046
0.19205218780307545
0.26000446796379334
0.004525573644442534
-0.008821690185887045
0.0006756411078302173
0.055273638522244053
0.33767972279754604
0.0003147590282476611
-2.751266319677742e-05
0.13626397181499203
0.0050857110611942525
0.13626376758559414
0.13114755244531753
0.03673330950718418
-0.00028481340991918787
0.004794434928705038
0.01158864515682348
0.0017406899860090733
0.008687241404960584
0.17943164942830403
0.16000203843406638
0.0438484118177162
0.0019511550986168952
0.1793717349723097
0.0002857197408542951
-0.006856699721225105
-7.284785260276885e-05
-0.009255097886784231
0.0006941125735810766
-0.12917843708426383
-0.0006209401698558284
-0.053037014896688904
0.00011712035318938016
3.757957119771249e-05
0.0017514902949410888
0.000538466553044208
0.01571348242957492
0.0011471903702911781
0.02251044773914332
0.09690832190480121
0.00024390580805002077
0.00024390580805002077
-3.7352465582722507e-06
0.00024874613715373503
0.014967161028926843
0.04554865380197728
0.0009425212745596019
0.002714424852061719
0.045548643053061603
0.008215752311234654
-0.28793144076752336
-0.10775638558194917
0.00794268887274892
0.018632996760742346
0.03602064296152682
0.011025370400307976
0.07165932857886086
0.1406091564847036
0.05979325659559323
0.003162457292499121
0.010680372530869951
0.002971053702329799
0.0036653439689231927
0.023880653672784212
0.00435729836177811
0.0002962360642738323
0.0002471242895307975
-0.0001837629166035367
4.196893132860541e-05
0.3341988369397455
0.028307215695872013
0.140029037505512
0.0013825770118523965
0.00257055666196437
0.019913853676416633
0.21157460493528493
0.04641301173292456
0.0029533183273631864
0.01458115537436649
-0.055081544650145975
0.000433103372222027
-7.055026925215148e-06
-0.0010143341923791772
0.006729333132116597
0.0002817155178361841
-0.077270998863984
0.0002817154968422082
-1.0000731052416208e-05
6.477320206343457e-05
0.03255818074519997
0.4352746316913386
4.566407053600746e-05
2.2537324294054445e-07
2.1928522774165836e-05
0.3066403799611518
0.0011273412378514861
0.30663846665416095
0.07866443454802151
0.2211992270298576
0.03263381549037473
0.0018877947753884311
0.011064462191210538
0.00046728807317740056
-0.18800053452272397
-0.1880004700292299
-0.14017968355875213
0.0025922242925995867
0.012289976970897416
0.01747619845537638
-0.1455245066376881
0.0012367310212701252
-0.009515257251997415
0.015363255884466331
0.0344586293456678
0.0344586427818124
-6.36490113915517e-06
0.0006070454748347904
-0.043344456967796534
0.0006070457267625016
-4.092512199814701e-06
0.013215520417118059
6.111609869193351e-05
0.002221416765050195
0.02794211533869271
0.07579206630463631
6.514798127333939e-05
-0.013167928249335156
7.689103519172195e-05
0.00026042861295455603
0.03553352360078927
-0.04738341846596012
0.046348846080779216
0.12640923693356496
0.0325636465688227
0.20469381555040891
0.030240486110365443
0.0042780086493689005
-0.0005442267961854598
1.0410743402434592e-05
0.001625485794991269
0.02141986275435953
-0.008435429916386546
5.047115174245752e-06
0.004313413226289977
0.019569079518786177
-0.028418066576039853
0.0016770446485633102
0.09074546334703629
0.08141796277966051
0.0005661023511583405
-0.005310435954064629
0.0027546192465804087
0.0013956130952456284
0.009523640062612517
-0.2270913526484174
0.00040825221507596616
-0.026832139310024143
0.11379103107349586
0.11920822660169804
-0.02044337347866416
0.11920836633760186
0.014673225211614327
-0.001279019354948612
0.004162979128230879
-0.02731965906787073
0.026103986264102368
-0.004851443482526295
0.0023060349165036163
0.004361889492387471
-0.03229385684696843
0.05252578571808353
0.00034520497501062676
0.08861911822188909
5.823661218907969e-05
0.02412105854640122
0.02312045273476572
0.09774185732003918
1.7876862555305314e-05
0.00012599036050702712
0.010088101902503314
0.00012599033951305117
0.10932708163444783
0.006275184054802463
-0.005787086542738133
3.2281098429900917e-06
0.0008095431636353682
-0.033708599569110494
0.034097164809216894
0.11705011305626176
0.1193000545883431
-0.05682045585856199
0.08432874764768218
-0.05604489472003832
0.0001102446266277648
-0.016108889354510957
0.009836357594652269
8.594025758494145e-05
-0.1111833118830415
0.0014237535045653442
-3.6045980937483904e-06
1.6196873428138143e-05
-0.000832389480055502
-0.04346920619593722
-0.03300202497141416
0.00013082263842097017
0.0012356870328348096
0.0025109231893439585
0.00014554508392518913
0.016217269327687103
-3.0484788242693168e-05
0.0013485870090298479
7.495479884278128e-06
0.0021526337818135203
4.8478864102016325e-05
0.10446662619383561
-0.03149856338648717
-0.12404800112854401
-0.12471135971075323
-0.1260785895383655
0.003715178629239611
-0.11352464069622505
0.00019724852300949744
-0.0015352177447341122
-0.007146325223350374
0.0012545205606946507
0.0710018604024437
0.0006712419041488577
0.0007081431836023204
-0.004019046108735842
0.19998632792882345
0.00027581705035737374
0.001136445569431536
-0.008252574737314503
-0.002486047511234005
0.0007909208351734371
1.3708376108858264e-05
1.3708376108858264e-05
0.004140814192293705
-0.001282309194953593
0.2334790032797757
1.370833674515339e-05
-1.197871675177063e-07
0.36154442239223383
-1.1979877160987546e-07
-1.1979877160987546e-07
-5.038127128298414e-06
0.0001350024760477808
0.0015495806474064616
1.5467359006852867e-05
2.909849040550382e-05
0.14851702626053234
1.5467365567470348e-05
0.00010736133496677271
-0.025546880713379336
0.00012541281622904422
-0.2633568182879053
0.00010736111453002539
0.00120801000255194
1.2619658695688757e-05
0.00011926684027094341
0.1736111330859972
-1.040068138340574e-06
0.004946542162670284
9.270662652590931e-05
0.005721676703602952
0.07428593361416311
0.0004927507848424597
0.0010126204961115224
0.0005676785368836187
0.0028053133162957186
0.0454310284177028
0.00034598326368650396
8.979191737992988e-05
0.002071628777594485
0.00014993337073906235
0.0008448367244116977
-0.0514338463699242
0.0008005997298868871
0.0007335238088214721
0.00016228614220354883
-0.013619730703995133
0.00016228614220354883
-1.1713384181891869e-05
0.0017890898340341627
-0.0659503752323856
0.012190656990024144
-0.02959784606312736
-0.04461768752779662
0.006018237943570048
0.000163396912476315
0.000163396912476315
-0.7898919798677829
-0.027791324175090903
0.0001633954114070356
0.00015026923236607692
0.00014354746512698383
-0.038241688721034284
0.012664049985439702
0.14874246326906643
0.00014354749661794772
0.00020777784170013868
-0.029837321155538145
6.820106171470903e-05
6.820106171470903e-05
0.14743384727865133
0.00012119338396361943
-0.015655225993824066
4.8620615427532156e-05
0.01385546786097857
0.19913817398826217
0.05630026208428039
-0.00345378381053058
4.64762802285023e-06
0.032707961510727954
0.08092761874421929
4.6476152296461475e-06
0.10009224746914007
0.0014001954923610004
-0.020043990798541383
-5.368842770977214e-07
-5.368842770977214e-07
0.03245960512673746
0.2959200134022695
0.00011550002762969792
0.0001588426682826724
-8.458738609381169e-06
-0.012067287653933735
0.0002560872476768984
0.0034088741690167994
0.0002560872476768984
0.0003307811898080648
1.3393617035998337e-06
0.07303194898768614
7.633390230684224e-05
0.001071123569091668
-0.00037628804695528
0.10700249963189204
4.3952801696820036e-05
7.218553989845277e-05
0.06066455295161126
0.0002395029094288965
6.502672138046006e-06
1.364218079061045e-05
0.0010847170845339367
-0.0022692494398214138
0.013374741417841063
0.0005317466752629491
0.021140963326467373
0.00026259596804819907
0.0010703219351145506
-0.08282412517986187
-0.018897350218492003
0.01661004411189626
1.5675986642710923e-05
8.790512315644052e-06
0.012872581636839778
0.00037838647882592713
0.004834525025151281
-0.016632802253617466
0.0003783864368379753
5.421586691190748e-06
5.421586691190748e-06
0.16200825905204375
-0.36574982816245666
0.021360847176438852
0.006402351117163681
0.004153507989903286
-0.09955799411315043
-0.09090697655402782
-0.015762943565071498
3.5953456549166124e-06
-0.03857862691913481
0.8049868111426862
0.005984525313157557
0.016691453712019525
0.4019589264881242
0.6661124114104887
0.31779848536214267
0.016691309945272317
-0.009508998695843362
0.0038750872246624516
0.0038750872246624516
0.005364818413424078
0.016050391068157324
0.003875086552855222
0.0022289077515675612
0.0033398177602375423
0.0006183435509362342
0.0006292767937238726
0.00047811315500101973
0.05369104879454665
-0.19639079413639152
6.212115379887695e-05
5.9590036084201245e-06
-0.06949542674233149
0.12872069451007678
0.07017288790191145
0.2710072730310551
-0.02641767187036045
0.0014921414651508183
-0.5973783411146112
0.0015953842963914756
0.0030209337096342376
0.013702525570626517
0.04377412337423022
-0.010282975041111624
0.0018828603512845744
0.00014684095808377773
-0.04817772571342784
0.011703548378202274
0.011703548378202274
0.7884723490762359
0.011703361615792354
0.0010071577795972271
0.30350322292893195
0.001007153916705655
0.001007153916705655
0.03663028921208844
-0.014169117189646236
0.004981693468265675
-0.0001176083161720467
-2.3902633567817492e-05
0.0007153163213240246
-0.39339909198070594
0.0002308408789338536
0.00014010507239586807
0.00034566894187879917
3.0278807815988693e-07
1.6648047092224892e-05
0.43633907531319127
1.664799067091456e-05
0.03864377340983585
2.583366472284971e-06
0.016360208408385455
0.345059971298359
0.0020408331341743636
0.3000280554942726
0.2702305778819273
0.0012714479195154612
0.012454345358616165
0.11725877100742106
0.4387838086952061
0.4975958988931692
0.5800790792166112
0.1025238671740266
-0.0022543665583530962
0.0002115783811637244
0.017102934296738932
0.09319044395411173
0.0011554824029543357
0.16229685668910723
3.568484649981357e-05
-0.0697488807995827
0.0035769005471025335
0.04789174006287435
0.014940159752741383
1.009914097067515e-05
0.029834628552160573
-0.1605681193293813
0.01492027963319321
0.007476922904814788
-0.20043638502830008
-0.3156833567305064
0.010661921345299846
0.08148574544193181
0.019924242503420314
-0.04434907212498027
0.5149962865898765
0.21718087389027943
0.07270905693514905
0.08522763109579018
-0.021582903650991934
-0.0648405711863679
0.07176992417228133
-0.0185906755924855
0.014027806569673241
0.11549397103559235
0.023733251104850188
0.01633428336738235
-6.491956025454478e-06
-0.0252347268276055
0.014614908313212775
0.0291088725144352
0.037995490181866334
0.0026677082170512264
0.0291088859505798
0.025517162648756028
0.025517162648756028
0.025517157274298187
0.0270944504737948
0.025517151899840346
0.02551713846369575
0.018854849005897532
0.018905518050793525
0.5514063036474146
0.01890508943778083
0.018905090781395288
0.01890508943778083
0.003099873746380267
0.003099873746380267
0.0015845344416762525
0.0017032597423379424
0.0031618026163535515
0.00022050676223145973
3.6911112506941344e-05
0.0020999766913723465
0.24370362984754598
0.0020999711489626998
-6.0588201230667375e-06
0.008834017848556312
0.030474664674575436
-0.20050016909393883
0.0022207552028805184
-0.0008633157899818456
0.002220755370832326
-0.26800252114216827
0.0003767566324981582
1.0964249996591335
0.00030033404638847084
0.09328539987521936
0.039569128750032115
0.0007462535481178546
0.0004475529800149895
0.2892244493323727
0.39219203174562534
0.05292962248014076
0.19605665334359643
0.01461335643851163
-0.021568513540126774
-0.024611300467143497
0.002487093850994625
0.06400464951184923
0.058577237139294226
0.002029652918253821
0.018470258177363415
2.6988745406074508e-05
-1.2147313918994663e-05
-1.0214208296715341e-05
-5.530516559578578e-06
-6.043070048682952e-06
0.00022081004120782255
-0.03288984391293105
0.0046294686325516485
0.0046294686325516485
-0.18016242520965145
0.005662329252910684
7.967025971400226e-05
0.08199852246439496
0.0032971469163175127
-0.10655007777096606
5.239212022239922e-05
4.620273921905197e-05
0.03211835930067861
0.13138130911458715
0.00011009122364560483
0.026977647381569755
0.00517332312156787
-0.12716148904843888
0.00018992080664298084
0.009680101951042188
0.06699232137372226
0.1750386965773153
0.009680101279234958
0.002352216625007275
0.0009586295324153167
0.005952670229735832
0.002532513394195925
0.026654424799875547
0.0356204312712823
0.002532512722388695
0.052647366703327855
0.0049898928755070055
0.025407029258709756
0.008353065006382318
0.09105849326943796
0.004989890188278086
0.05658090552374146
-0.06202646206596248
0.011709609423030728
1.779261110562956e-05
1.779261110562956e-05
-0.00027313859691958334
0.0071455076339515455
0.007145501587686476
-5.279441203776737e-05
0.039100255673659545
0.0071454941978069475
2.033497634291269e-05
0.0019886696540953827
0.04040521703274382
0.09856815871502522
0.003838207023160828
0.2936547869120927
0.0012419771639286708
0.013584122233579772
-0.09115080495728857
0.0025479886416892358
9.116651894827623e-05
4.5959467586530056e-06
1.87208105469822e-06
-1.9214240492194697e-05
-2.6274283665534915e-05
9.421539009747084e-05
-0.0731139578398585
0.11142135736966698
2.806658728364768e-06
-0.009630399636750065
0.002979143269089035
0.004768354364328201
0.016569574444365107
-0.007297718326230201
0.01490926736908015
0.014003993690601043
0.001999008263508627
-4.093950615197153e-06
2.202708424268857e-05
2.202708424268857e-05
-9.167758973783009e-06
0.006307873522803766
0.07207153874623197
0.30116812848684216
-1.5969220308940448
0.002753649996699423
0.002417063825587388
0.0075957347006573315
0.0057951495731117875
-0.29494577468079436
0.08374078196004496
-0.14196905555182288
0.02082625119876195
-0.0015770140635925768
8.890233701337218e-06
0.0019671226128579393
2.8443827381169225e-05
3.700536758615033e-05
-0.014810687719774266
3.7005372834644304e-05
-1.0184476890420314e-05
0.08064838878717
0.0030411708947251197
0.06286841925663487
0.0005444638601617224
-3.816319585597568e-05
0.0005628206148280705
-0.0416900644833639
0.4654881568339524
0.003353066134715433
0.542344279799477
0.6186143288865237
0.0017009433510091338
-0.4621737931778498
0.00032653786639802554
3.7670133961403836e-05
0.00011406473247692232
0.042091652034815324
1.748750040486639e-05
0.005328478344935321
0.0005275379709192274
0.000568218208029014
-0.3635113019788263
0.01975581505641831
0.0001475677800276493
0.002854524707454567
1.4791561609368798e-05
0.00040954573790924996
0.0004081431723649577
0.0401872558950644
-0.12351774636918694
0.00040814304640110206
0.0002831454595250962
-0.08740342123306044
7.0799021624516055e-06
7.0799021624516055e-06
1.9327510209045432e-06
0.03536123729305853
0.0016977897199200217
0.14433520361130905
0.00027330405044393027
0.00024163308419115795
0.0015491737001769297
-0.0159171663200038
-0.1513635433617097
-0.7899076302890115
-0.008437105403617997
-0.027851526164579643
0.0016972576485939149
0.030356423914878333
-0.0759794360282935
0.01730231190282394
0.0012482698982755481
0.00029982909927927257
0.00012800607611248874
0.00030082753078680837
0.12433913550970771
0.23950873651685714
4.59395219972679e-05
7.736926746654244e-05
-0.06024718330471426
0.00012990087691355044
4.510968720591352e-06
2.3250109304781317e-05
0.0002760593418336442
-0.009278311513807331
0.002490512006180524
0.027031666057314198
0.0005660541489895929
0.01304053613155191
0.03824259162995131
0.010270042751935417
0.0006034316557931742
0.3468532558967369
0.0002103857553787861
0.008105490606007466
2.8561395614592675e-06
0.0007112009142093596
0.003938806460903508
0.008404631585737505
1.657645369791468e-05
0.2609678287826014
6.296028301701493e-05
0.0009514982146936759
0.010143017440899715
0.05609163637986812
0.0047252915208895055
-0.5133760810317607
0.00011726347962031976
-3.4271415916912885e-06
6.850606219709854e-05
1.1420709787623425e-05
3.9898547409808e-05
0.007268001605221351
0.007275026021617529
-0.00939227420506422
0.013859281038815667
0.007275025349810299
0.0015144844300039248
0.01058905041506903
0.001586227227943876
-0.0030988270707160317
0.001586227227943876
-0.06451141251599
0.0008408491286225275
0.011190719626582427
0.047370826111242256
-0.5160172186010609
0.013053700866029673
-0.022412637980922936
-0.3431424077369014
0.00047249714047444425
0.006374682736398897
0.0001687192317765422
0.019386037577304213
-0.04339104545557792
0.08018977017635512
-0.001147977896316467
0.0002964903433103619
0.08054014720628322
-6.756042529054631e-06
9.680119580733477e-06
0.00019098723763857144
0.001304915256313122
-0.06978847443048602
0.00012398287454013215
-0.007206236992115785
0.13414738133082343
0.0018826712375493483
-0.11283738727446159
0.5128614659447165
0.01892681030913902
0.002414068405100925
0.0006962196969577609
0.0003021546649755648
-0.014261866895810766
0.0003021546649755648
5.946113553218959e-07
2.445731803025373e-05
0.9266353855688021
-0.015317078542709667
0.0011905798799954285
0.0006440990026017365
-2.753934129169732e-05
0.009681195653212519
-0.013193251351060245
0.0002506689544156825
7.3433432325041e-05
-1.1319413853735113e-05
0.00413750856481882
0.0002962650569545991
-0.2123515795562204
0.028826291582923005
0.03332821694106467
0.00042482515359503517
0.009123478086103018
0.20204747550592014
2.4831173505217375e-05
2.2275398365805508e-05
0.000712748086259895
1.3284329285927056e-05
0.0008533706916535347
5.793816445142905e-06
3.6235874730128297e-06
6.097796357877254e-05
0.002773643819621262
0.003890548532155741
-0.06894673759258504
0.04068530690304742
-0.042173730754939596
-0.05395438110530681
0.01238526207754771
0.03496988539656237
-0.04034025864806715
0.04646477851083426
0.3624812118914835
0.039889051414612894
0.0022454457980986254
-0.03947389604434575
-0.5108213217488564
-0.008621686455463738
0.0008627061249206815
-0.017323397244542616
0.010290660515822057
0.013824179111051677
0.0023835379575848194
6.713125593748684e-05
0.10478399867817156
0.005296896015248948
-0.03610118189948009
0.20367759156429194
9.809928614250807e-05
-0.003252494576972796
-0.004765505229866056
0.0006036306786850417
0.0004401939616303533
0.006976237068875976
0.001095112545634014
0.0005288919144152532
0.008915416699763895
0.00025618984523729474
-0.033621726832593415
0.00013410062732653578
0.007295308553696432
0.03897582353853138
0.0025759845284786123
0.004105909775855314
-0.47945203019678184
0.1956194089516091
0.05680485380745403
-0.1255656405332515
0.5466620332363759
-0.1145129282504925
0.0621603398107435
-0.047839806676771617
-0.05575794166707372
-0.1797448298355252
0.013277172166608996
3.1194450235484497e-06
0.0126416667121528
0.01264166536853834
0.044740792171838434
0.05231452115487208
0.01264166939938172
0.0016141727291910074
-0.05593090784372115
0.0016141725612392
0.0016141725612392
0.00010361795160267111
0.01929414375355062
0.02770882087279731
0.003980078602170816
0.02986789107172901
-0.01568668807001628
-1.396690248914428e-05
-0.021243780735779674
-0.028375506244409147
0.0011010222658839257
0.1873741737082816
0.00043941798229182893
0.05365742618630297
0.17288382920441406
0.04268641909884839
-0.001099261375158368
0.01379463840353707
0.42064724926148045
0.7283595970854602
0.06044430766935007
0.004084155650039243
0.8946693142182336
0.08397667766353466
0.4715742788826855
0.00044655517832673175
0.003161781454425809
0.007019601553760912
-0.10922462297019632
0.005012553941083486
-0.06878822333306793
0.00017113688754827504
-0.19840217423389478
0.031192044619758007
0.212080857365931
0.09699482917818521
0.03288391051147629
0.03026625126124783
0.007543503703951742
0.05630018684187064
0.09019066881318423
5.236321742209189e-06
0.05859789655522912
0.0051008703913376875
0.32632613761601825
-0.015506881552153674
0.3133427373457576
0.09439910577762851
-0.08764976488259006
0.0039033975172354366
-0.1983621667697378
0.016513238033677397
0.0001737524955191028
-0.10450821374859737
-0.0027822315314414933
0.011222089665184141
-0.2097991635369341
0.0007035169930531472
-0.1166861762692047
0.0003882301342625182
0.012159048459855803
0.006862933420511652
0.004554927253643605
0.00010113009197541027
-0.18747061297975293
0.005015420878437224
0.05583178671778794
0.04114587912928694
0.12223217605398744
0.02595401470532108
-0.004636874299550814
0.045086708401759774
0.06999353686935074
0.00603862191854067
0.006046379276624704
0.0034843718655166527
0.002666926569339199
-0.05462224885764332
0.0041408743190407835
-0.08300620643700503
-0.004480620335458808
0.001257484070337692
-0.04395341797498362
0.4286705408938695
0.000877018558074882
-0.014298012812010073
0.016606589679119946
0.0006291186251091753
0.014486877978561094
0.0032983649028253807
0.00011447313878778166
0.04883293124309458
0.038911972292169646
0.00011447298133296214
3.2709569733260516e-05
0.04677870596769512
0.2322436304007968
0.0028723548072405996
-0.17885329327128377
0.039908369903316844
2.9170095608925484e-05
0.00042065654774534994
0.00027433267128886116
0.08050181119851432
4.87819593810897e-05
-2.1083877388850824e-05
0.023193161087646894
0.00011986079134111982
0.006463174528340112
0.2755170450976424
-0.01614897340469213
-0.01638284965564865
0.12610692368009516
0.09228971706696482
-0.01629454731334628
0.004035456008037796
-0.07135030800200744
0.045364030426276056
0.0002491341268229972
0.0007582157476540388
0.019327611846131413
0.0009154467713860783
0.007320082788914665
-0.08964108750343644
-0.38716669868741405
0.0015313958334030244
0.00019304895104530753
-0.11459664080579997
0.00035575724011696543
-0.630643784388111
0.00019304819526217386
-8.194954550246837e-06
-0.139903361183394
0.03365360542926819
0.0001460184875855445
0.0019328500311193
0.0019328500311193
0.0019328500311193
0.000970106855083297
0.010989164021457973
0.004640740886062692
-0.017150530495365215
0.005923333079811894
-0.0015049273003509
0.3411538153406375
0.34765761875482226
-0.004456367086747387
0.007122144193916171
0.013142584993393169
0.03184795957785956
0.05883559807655288
0.26407422241814815
0.24672024853934235
0.004775698896869442
0.0073597194154807035
0.10858728751284578
0.17270293570245343
0.005113656898344999
0.00838666544498741
0.002078852552786146
0.01772381853864287
0.000788408024205777
0.008008937799114288
0.0038028273031072597
0.0002663806360659776
0.0002663806360659776
-2.626483112787e-05
7.79770798093302e-05
0.0007871761816737915
0.0004612697720839509
7.041081676700061e-06
0.00026593778913759625
0.923524821353972
-8.704228714703864e-07
-6.552388497308019e-06
0.0013579302520560427
0.01632883635436205
-0.05014551895785306
0.8682418581473764
0.7995181068105507
0.152280060405989
0.032104732362826655
0.027200378350581693
0.04161447542108078
-0.10181666376476306
0.02501363775546352
-0.24647431334860853
0.2149874931525006
0.0009007231922071588
0.081327354794945
0.0034907345517913467
0.09833190829731811
0.6580664610638486
0.6678869713977539
-0.015670059497460982
0.09605812567026092
0.0003314236054716881
0.18326959276712712
0.005070689451532954
0.016217251860699125
4.520313204886377e-05
0.0013409940757653394
2.53984743630981e-06
0.020354287809131687
-0.008688548741830034
0.00533067918542058
5.232770020724144e-05
0.009539764107938137
0.0015376735360631319
4.5420792342868016e-05
-0.03296468592557449
4.542080283985599e-05
-3.019185339191081e-06
7.803412569044066e-05
0.017912014585192877
-0.05427344116940435
1.2804847869538423e-05
-0.004404906652934531
1.0361904197729624e-05
-0.002083520941226949
0.007221178656716722
0.41814309587359255
-0.007996364254998865
-0.3077075968032496
0.0043818633290442196
0.013004766427401365
0.2353948255168933
-0.04851298439345353
0.0007435298736558993
-0.11276864795869486
0.0045287277793870685
0.002735262968719776
-0.0012857907519468162
-0.28069718403946153
-0.17119412115751834
-0.04524194424199482
-0.20560829030070918
0.1692729029647299
0.2080076202628962
-0.002771777371184701
0.11642454766157966
0.038970381899968924
-0.005092308208192194
0.04889360887210212
0.011614447928910742
0.0005381772140678663
0.06300885921443788
6.288908194763002e-05
5.26602762770221e-05
-7.229285454281709e-06
0.006184149472495953
0.002133086374795972
0.004998522239375493
0.0006913296541190316
0.0011349168720798239
0.1250268833815924
-0.045523856053506
0.041879422756421696
0.00015930569042192768
-8.799072609331716e-06
1.5077140039771071e-05
0.006016080098747503
0.006016080098747503
-9.077685632155674e-06
-9.077685632155674e-06
0.000979881986182435
0.1308533868699324
2.7559759901480146e-07
2.7559759901480146e-07
0.027388264022191473
0.0042085421022757695
3.3824916692780597e-06
0.016249399180265873
0.0007993489088006559
-0.04209204168300868
1.3065442648500375e-06
0.002531605446724671
0.00023678670882237426
0.002295098734559347
6.114802528083724e-05
0.5208197481350794
0.05929627510472027
0.05242707305094611
0.02512585374792258
0.06685358511905436
0.7578058646269122
0.677146302341894
0.7486270645590387
0.31769075972920846
0.025270098821875923
0.025270104196333763
0.0008804101768751981
0.025270104196333763
0.0003190711279228647
0.024372545552083204
-0.009217838114197695
0.05880737142398002
0.05880733380277514
-0.6039126929471555
0.058803996264456836
0.09198386742023666
6.462361998489482e-05
0.11231627984234728
0.14713220045795364
-0.5264730758429162
0.32576022870335414
0.09069261092864302
0.0005178108740370297
0.0920500054984091
0.00043800995831379345
0.04532987574670627
3.922024516857014e-05
3.7346700768143036e-05
-0.06353720604126195
0.02787707633714845
0.17866329543774306
0.0016552848123857853
-0.03538275393501882
0.0018458760196623115
0.06841248961105326
0.07618745979342775
0.05667030425544308
0.028190853309189804
1.7198631168736237e-05
0.26041281927043575
0.05523868304845619
0.08709742110151279
-0.11785211115289776
0.28187339488654367
0.055238629303877795
0.050246338412463544
0.0018992657158877272
0.5962941624835721
0.6017135507905728
0.07835200656489787
0.0003252914750407167
0.025333224516429335
0.0012807945215778057
0.012646449979629923
-0.19867384232876395
0.005141968870436059
7.041978906746601e-05
-0.0003573347274687515
0.0032043693301529418
0.03223124441313869
0.020680632950830627
0.019185867238687884
0.00952623055129114
0.06000189842337902
0.05585806781662291
0.05572618399570033
0.06125293784695996
0.04222121946440909
0.06141342453250416
0.07452079204728979
0.04924960758493029
-0.020859411603631434
0.04858796345477187
0.05904256844795059
0.04862030156759192
0.002869709566272739
0.021238760992157615
0.0002702082367645441
-0.051596730063664796
0.00016004126685376433
0.0032072691860609466
0.0004440087350096232
0.029366816931211296
-0.03328790044558194
-0.055470805882542586
0.40568591951930943
0.0630271646178391
-0.02330967127191969
0.05236555700651562
0.004504401303687585
0.044598949480539336
0.3396292966298955
0.044598949480539336
0.0013886663565604116
0.0012981825722065425
0.0049765719458482825
0.0013886663565604116
0.000627062475106062
5.166455824087593e-05
0.0014448333038743696
0.0014448333038743696
0.0014448333038743696
0.0010405534009730927
-4.9213611271803504e-05
2.1605791566975382e-05
0.00010611789326308278
0.0004657023561870478
-0.13954049928790482
0.00046570260811475904
4.65554078359263e-06
0.021748387238712374
0.010337963134688858
0.11783830954516601
0.004416747255362097
0.0031005606692728733
0.0019521078892207474
-0.04587148136102029
0.0004134750964091753
7.164314478467973e-05
-0.004250708754869734
-0.013073421095457121
0.0012562114994923918
0.00020933647646153474
0.011942995254709399
-0.03285034970949776
0.0019740029266032966
0.016457564024918405
0.3558663721783355
0.017001379885018902
4.931691213039364e-05
-0.029120994604092107
0.0014161424325056275
0.14901546422947978
-0.08759068346756084
0.0008003392366334807
-0.02107576309118793
-0.04723549726284459
-0.012266530898572759
0.02494813386331615
-0.028776067274413227
0.0013732618167780514
0.0020301445131943245
-0.028202118172821318
0.013649338592232734
3.79714132615588e-05
-0.003173035569141644
0.002520957470082043
0.007526882521275973
0.012907225392072955
0.020950421329070438
-0.2603280748192231
0.33455651785787743
0.016860442789865752
0.004920880470101309
0.09744659535525477
0.022945769418838583
0.0008251443749842911
0.02520198831767641
0.1287408272291434
0.39348602921071707
-0.15168420501424343
-0.0011384598154586822
0.012933491711148869
0.0011740921350307054
9.056311009194091e-05
0.002745667415241553
0.04334008484634413
0.001381630099561806
0.0015657330765875444
0.0020411643351387204
0.007220379206113101
0.010350801370852874
0.0027822686487909472
0.1757379780357235
0.18859677687543397
0.032717173331464795
-0.030496157131475448
0.03632146749017507
0.02260704421350644
4.125547729891072e-05
-0.010183192185056929
0.01110555328042938
-0.018510190399110622
0.01110555462404384
0.04644973002888377
0.0558123741760718
0.02913569912074088
-0.0027279123899134655
0.030165888635553702
-6.706262663015402e-05
0.00016835766302599473
5.8490502837054476e-05
5.8490502837054476e-05
-5.643674089870395e-06
0.0001642633023722051
0.04786948980741897
0.00022258312943339873
0.007271568901612294
0.00016708190109635226
0.00019003270453471654
0.025422432454877655
0.00023446496402970227
0.0001277731374524975
0.0016274330282472294
2.0200028377723426e-05
0.07496075591494389
0.00010583772865422484
0.012577918924104472
-0.0003286087961601973
0.00031386292137883443
0.08244527964675814
0.22869429544795286
-0.009680244374174933
0.1236824090084724
0.03159455389072889
0.01242038012868522
0.049709913775506764
0.07598488572854271
0.07886661090302642
0.035253089765183945
0.21031334866735119
0.04443010013859693
0.03131620265753635
-0.37201588705965494
0.0018517983362977845
0.02226484442118109
0.0006564039078010903
-0.04107176535568075
0.02861238009922563
-0.016697952775161895
0.08147869952770427
-0.005378993545975662
0.03966868789427924
0.00576360822366644
-0.05067353794274892
0.19552552792206937
0.0031044816721703763
0.018656422678850107
3.6279206952520716e-05
-0.06912416994369708
0.013467337951957167
-0.09181805464697355
0.013325172793187698
0.005280595284621857
0.0463959800760313
0.13508862088116425
1.0857074674759482e-05
0.015764343611338678
0.015766146741943817
-0.0024010195573703243
0.18693815469268169
0.01576614271110044
0.0019520669089797215
0.019657544438438194
0.0020976438407664046
0.0020976438407664046
0.0028725929629036108
0.0007051832009472362
0.005113190664127426
0.005113190664127426
0.0014697560084904182
0.013136354653142772
-0.0371363401005655
0.041336250487647476
0.004724672114623507
0.020746389442496453
0.0038282488245915338
0.018825024795731893
-4.0506314320320365e-07
0.0004491037210414339
0.048369147778295984
0.000155201924466919
0.0010008776416359111
-1.1680356721374988e-05
0.007487464903866894
0.02283296761047502
0.0006693723486038583
-0.06782592665691213
-0.2534218964955134
0.0001342824246611484
0.004777227594221153
-0.0019161989530217995
0.035181741150136156
0.005554788366964724
0.2235838739732272
9.58135460185653e-05
0.03814304323461987
4.759945794104625e-05
0.0007241517620602939
0.00042941670408391493
0.22491037615933207
6.703993214216784e-05
0.033573004685049763
0.005006652786375756
0.34442043231329433
0.03357293750432677
0.02882524893810215
0.003059155846077652
0.0031208065878577445
-0.00498465277911353
0.0006462436212194416
-2.611771321725568e-05
0.0024952400175129834
0.11222419388172591
1.4414483559099061e-06
4.9042211203772904e-05
0.031168348635143815
0.0009431517656448939
-0.09592487136258927
0.00023663637096070085
0.013908060961781092
-0.0003707888429108091
0.043739073847430164
-0.09197993331709818
-0.15239729882929903
0.0527036748981119
0.033063390531025146
0.4012468753178895
0.4012457574306589
-1.9983252384415686
0.07273467697566977
0.4012445535521028
0.40124352165619764
0.0023484933013871796
-0.004503695906096156
0.0512621646887004
0.002349610852714173
0.0023484933013871796
-0.015253272979239564
0.00046182258545828187
0.031700094806551345
0.3203689165641068
0.14928654113398662
0.003163129435632669
-0.23190385717618595
3.1192731353704826e-05
-0.29717062824368107
0.005254053860485285
-0.43936738882524634
0.0009717585771339906
0.0015469159240289328
-0.17466547272711166
0.09030729454830057
2.500400378785857e-05
0.013661951101167493
-0.02341738884316712
0.008186492419142159
0.031081521581518372
0.2846206242535948
0.1330873232665678
0.0007678590365843024
-0.02369771787684458
-0.0005045874823905021
0.22979019039708204
0.0955309021051253
0.021129120708618117
-0.05275000272468808
0.0004308833012548102
-0.020770261440604888
0.0004214767823851461
-0.029931935798572968
0.011553344374119428
0.4632490717067068
0.34017895318205305
-0.051612552467544176
0.0280962950979623
0.028499812079778083
0.6676974895121658
0.619044844457296
0.6190424796958467
0.00850020019503883
0.09904645321599037
0.04634437453185678
0.002930523908051565
0.0006035278082029583
-8.473508265088778e-05
0.017701032181018008
0.008713358582831454
0.20769355844458937
0.007242259967592014
0.018555822233396583
0.00012588459285626456
0.010489462383111015
0.018555816858938742
0.10039178750236469
-0.09298334459572588
0.000523527701636047
0.06180651237888247
0.21857681407167012
0.0001397787420339282
0.025238080489297324
0.00022534301850384256
0.04501693181563003
0.014306491019251825
0.0275954816186498
0.007591030706433341
0.06615925891077416
0.023874309125304725
0.03124710862755222
0.00472640033872251
0.00356537804539834
-0.06747138442215844
0.16888983310776434
0.019197656111958745
0.007025342146540687
0.039315792930853355
-0.0016182460643778978
0.005283973467277574
0.0014796702036861524
-0.0005477763316727619
0.03369552351318708
0.02442329924469017
0.0003529138160162746
0.0379970111534349
8.453719868221468e-05
-0.0603581981058462
-0.02453453171136461
0.03121239769159605
0.03121240306605389
-1.5692556977976972
0.03121240306605389
0.0515601085079467
0.1701047400512906
0.06030829089034895
-0.09242329384210682
-0.15410619369068165
0.8619589019547308
0.060283783362601
-0.02093547361820443
0.528177509904292
0.08960053184457986
0.030573745492074852
0.030559226394221543
-1.000432883080057
0.40063066147984805
0.2788531430612478
-1.53625532278484
0.030559226394221543
0.030573737430388093
0.020519399215646744
0.0006651033495612501
0.07389657564152538
0.007762440977536247
0.007762440977536247
0.004024107504406156
-0.01246450577116167
3.0845205604872937e-06
0.06785307304345925
0.0013115395275279712
0.05475797004146328
0.00010416881253724011
0.008758276957839223
7.642209799974688e-05
0.09086507728071137
0.013527460668192777
0.03967271873765884
-0.025778173193729537
0.04577286543412399
1.260832850930112e-05
0.02012576586179773
0.13429484570502262
0.022581026463105603
0.0016811556049550769
-0.029242140258251437
0.046477155887238546
-0.11228332366687568
-0.047693766533899895
-0.044475068227339716
0.014882827723738914
0.036893522095378564
-0.20463473950983754
0.003717191699604105
0.0016590240914275917
0.006505684474428572
0.009151317777711436
0.007821401467264073
0.004313724608941051
0.12341624435843085
0.0014556245434087808
0.001073532753794111
-2.3894275669179107e-06
1.5817871804823338e-05
-6.863090156287493e-06
0.010099786645653537
0.4843937366910111
4.017641842679499e-05
-0.0033683779651000625
0.021770765137541438
0.28446547440468517
-0.3301542994415735
0.0056213197882702785
0.001982950727098772
-0.23465671897505286
0.23931372968861006
0.11019946363094943
7.980800906285541e-06
0.0036148784816178673
0.0014674339068001556
6.262279960535937e-05
5.601977429415691e-05
0.0021702651946113004
0.000163597100533847
0.02559629079152644
0.0025163063806774104
0.2531315467851943
0.000330881562007012
0.0007546027683714599
0.05357197230665551
0.0009065696786015532
0.004735702517531775
5.925610721509625e-06
0.003473870510801957
-5.764269260986717e-05
8.211069394962503e-05
8.211069394962503e-05
0.016733961642686295
8.709124706710585e-05
0.0024682390772311374
0.07170443102904964
-0.19044324710859115
0.04262428499176636
0.00011411863451013646
-0.03933037652220074
0.0064626679856887425
0.14897803650508576
0.08966096762298462
0.0005950118957804257
-0.1507904756712035
-0.028749299787143783
0.000640154444463234
-0.9719954657685661
0.006281977369511544
-0.1675457994401872
0.0010121138694842492
0.7040227621184912
0.0006205424599757081
0.7283774832811498
0.6716512846641763
0.3065545176227085
-0.007817257088462619
7.774783608910356e-05
0.08115671575854207
0.1456290183448343
0.14562890010676183
0.010595822903753983
0.17116442190349745
0.0034429986172612383
0.13828562787588433
0.0009823232496801071
0.0004778051313860955
0.047585621693254226
0.01409984177171002
0.012130520837643934
2.3587561225472972e-05
0.0007408742196759748
0.002979604800655999
0.1392140332209045
-0.012421907818326087
0.1239257537105276
2.5217389183512988e-05
2.2360371483404035e-05
0.007017764160987045
-2.417371204949682e-06
6.4651145711593165e-06
0.003897400629997441
-0.62756993846924
0.003897400629997441
0.014962044545063675
0.4165485157304553
0.01496199751855758
2.4231496328104584e-05
0.0010962198519007507
-0.18678001664521332
0.09805659632003379
0.04248841601035582
0.005099095476636205
-0.10224612594179884
0.06355937567984973
0.8350554838976109
0.030068817865286243
-4.957391841560953e-06
-0.25580892969816377
0.08914970082317436
0.0037367506952963696
0.255646621071412
0.011397430008582154
0.0037367517030072145
0.05653825382632748
0.0012935874947297057
0.0070509023962179425
0.17749607068416856
0.3046144673296506
0.30163119177429026
0.04450291329340597
0.14268145068735932
0.008396901771749897
-0.2991168484143387
0.018974227807042138
0.15286498415048907
0.03730929284106833
0.2613260256486859
0.42523398356432884
-0.03393162344607468
-0.15521805077959402
0.26132553119856466
0.22514633635631584
0.19730941796814386
0.002380829566737345
0.0003954737277674616
0.06809173659273628
0.003978223742408972
0.00238082923083373
-0.7041684314237721
0.0034763820621310612
0.11538345068458164
0.6174331950360606
0.012576620992536243
0.09242977543826121
-0.0815853395201549
-0.15250242322463892
0.04030049034728405
-0.009761985175262554
0.005159278991426124
0.009026795620414462
0.015739635885036206
0.03402460962838414
0.005159279327329739
0.0006515714724323277
0.16648583811617265
-0.0003853503485955073
4.608805437701085e-05
-0.008519287582055684
0.00017669313222536245
0.00014417424027853522
0.012807752239151258
0.00020537791534108325
0.04246901690478428
0.0010477338445984224
-0.03580565389903263
0.00020074920551479782
0.002899462564872005
0.0035255691002778243
0.23605885053187461
0.0035255704438922845
0.005407631008669624
0.005118221828472393
0.004644079432091843
0.005833404292205854
0.023340380924014376
0.005765631707042998
0.01835326832272845
7.329783617084473e-06
0.06170647759511655
1.9537240684701833e-05
1.9537240684701833e-05
1.6984974491549027e-06
1.6984974491549027e-06
2.2608881768983556e-06
-0.11616335975949744
2.260889325006423e-06
-8.240868375617564e-06
4.407424397486536e-05
0.0013501621450563292
0.025193676718627683
-0.021893426388811494
-0.24154888071271718
0.025193663282483084
-0.05560271657575436
0.00597589998013245
0.0012196870199190177
-0.006145453376051821
0.0012196870199190177
0.00012999855138658988
-0.021814814193993674
-1.1483997440204185e-05
-0.10212329808233576
0.0018825912924889865
-0.14734857613057042
0.2056082258072151
0.0018825892770672965
0.0015651052727311723
0.0015550058266917842
0.00013245313556199312
0.00013245313556199312
-2.4688847469610314e-05
0.0003194985022909817
0.03256951278955447
0.04983746040895289
0.0021194359236909664
0.010697520410413986
0.040719988279485475
0.0011107886634890744
0.00023417449137866006
0.002245826208942575
0.3871637319866867
2.6510374046163457e-05
0.00020490469012952338
0.035916453721851
0.0022608669651099263
0.021368638796691614
0.022007602714767503
0.001213490354006021
5.332509579327721e-06
0.03247044272097074
0.242870094432308
-0.0071702617149528814
0.009495357650039575
0.0002616796649745225
0.11405487395775077
1.5890341697628846e-05
0.00019898401102417333
0.007896677467378049
-0.016088878904360178
0.003282876387139279
0.17418435126132295
0.0005814075894345263
-0.0015367252801580817
0.0001900976808902366
0.0016104934089444726
0.0011020301446806324
1.709640493928928e-05
0.013427741633824925
-0.004040498929009287
0.0022388886236308658
0.001981485683482096
0.01013205690594336
0.0007528885682483825
0.033142838454037
0.00026098495331684416
0.0017921168294604327
0.0031560301127303535
0.0014988316574501045
3.849922281055073e-05
-0.014405524810245145
0.028023213220261283
0.003764195364253586
0.000988854979449033
2.8771079509864946e-06
0.0022664723566846786
-1.4533627652841152e-06
-1.4533627652841152e-06
-4.762659265494279e-06
0.00776411243392432
-0.13970763417779644
0.026290181668721636
9.670104535725846e-05
0.02128533201295102
0.036439541641679146
0.002445243283702344
0.03643955239059483
0.00037644084111213786
0.013519836999747499
0.06212700204876531
0.0008130943366527932
0.00013739633514779086
0.04037009226353401
0.08837124285187523
0.006637044285711801
0.0011030173654050187
-0.0038072195787765607
0.001902473763362464
0.03309793485878829
0.7136802758950413
0.0833852078293861
0.061197763662780034
-0.3800992006371951
-0.32707690638052844
-0.04949424215686696
0.005332111814338412
0.7277090727085715
0.06831730796271637
0.07860934098070918
0.043830627736725414
0.26099979605783047
0.07860927648721511
0.07860929798504646
0.005141700819351316
0.01966328032856736
0.017727862818167066
0.012363960413901
0.028193868380037745
0.01019728804435538
0.0010941062623794782
0.20475065581651908
0.003828679453025921
0.0002824515666324793
6.538561208695218e-05
0.004216389146625
0.010202770663158863
0.002381028421677405
0.01217617954421909
0.00309489263167393
0.0018490529960526639
0.0016860836468902492
0.35927547677723215
0.00039040502619352204
0.0001263612715768658
0.0010464285231506628
9.122066241221362e-05
0.0005218751818142678
0.22221906265164268
0.0002726090448705888
0.018767178162391294
-0.17016799742006106
0.2698344588413275
0.018772054139266147
-0.2078892961991026
0.0015892379320448199
0.0015892379320448199
-1.3504348777977057e-05
0.00010466921445064837
4.317804263314697e-05
4.317804263314697e-05
-2.8585255924305038e-05
-0.05641933319771369
0.023556990385547167
0.005348343012917205
0.10188634898510954
0.0051201092708848895
0.013735386349471452
0.011805743694019658
0.00046962247733756156
-0.06785690503189878
0.05786238050206728
0.23649873915711897
0.17766934320491282
0.031195634757594768
0.0025188711727294863
0.003707119629709337
0.0037071199656129516
0.0037071199656129516
0.0002216859098838475
-0.010975070177581214
0.04380386831114273
0.0006008449880181734
0.15602788483575994
0.0004909704956831376
-4.00809299514998e-05
0.00018095518226193613
1.7202437638998018e-05
0.004879217672929794
0.004879217672929794
1.4321225693747029e-05
-0.05951943871758828
0.021223891210930282
-0.09843683921217579
0.00023938574204920103
0.024265472915776506
-3.7532354433710214e-06
5.050819626905728e-06
0.03675062601034293
0.0029706952931726296
0.06292458771551511
0.002970692941847325
3.947637167498203e-05
0.001324402368631784
3.7363325372836877e-05
0.05327148099439331
0.0005270152209184358
0.005444028852580156
4.924720163330014e-05
0.029418140316349244
0.007592059915109598
0.26437478359836225
0.016123738981521394
0.5196516849660819
0.009531144149370868
0.0002179441745468568
-0.004089705785469334
0.0046896326649318995
0.005589203371836109
0.011173669830893962
-0.09002230317244737
0.0035329522617347864
-0.0038233100337406825
0.000569890672127932
0.003836066309422647
-0.2058948778905407
0.001027397651917029
0.04173550552439656
0.017163305581649618
0.037472251777218676
0.04761560041908275
0.0026086168928653704
0.0026086168928653704
0.002608616724913563
4.194798458911587e-05
0.07381603939080103
0.020478955076790324
0.020478953733175865
0.049805020181433894
0.020478856992934755
0.0011761865780459248
0.061735220195641996
0.5044729691532203
0.020617996331940606
0.026267509518325863
0.020532475271570157
0.020532471240726775
0.00011584721550672961
0.020532468553497857
2.793401491804791e-05
-8.321084389481492e-06
-0.04551840635325678
0.05332750971736971
0.05333666779352815
0.33677303026219735
0.14813609543778689
0.05333662479786544
0.020073644369670622
0.003663058144823346
-0.07268709690041701
0.003770791503540682
0.010476438728151537
0.003663058144823346
0.005797798509019412
0.2893486852997897
0.0006791619235584398
0.0013559967068723922
-0.024090227969005142
0.0009325088275564902
0.0006440991285655922
-0.002162244488093132
0.00015305293910221945
-4.108404311566922e-05
0.00018961232116058605
0.304719441240171
0.009634294775069217
0.13268298130547365
0.009634294775069217
0.001670451364456942
0.002115793888745693
0.019312704443699202
0.006849739126515771
1.226743751292654e-05
0.007518519193070539
0.0002748362327956477
1.5077653080058003e-05
0.0035022896361461913
0.01998400916182406
0.13363780748523263
0.009740145394024666
0.008277309335906171
0.11845855422658705
0.023368930044057604
-2.0239507549469945e-05
3.06207216126279e-05
3.06207216126279e-05
0.00018957138290751202
0.00018957138290751202
0.00026668928950017987
5.6073650084901195e-06
0.10268955096030156
-1.5626816126823222e-05
-0.09683913113457597
4.186232654305244e-05
0.030435468753552235
0.23900710611995304
0.0317389440750439
0.003413710845168701
0.001313230466325712
-0.004181617076210906
0.010576230317700221
-0.01189836710042496
0.00039051280926597436
7.930060828271968e-05
0.0010311732925251552
0.017580497871437915
0.03081686177967187
0.00019495589686144787
0.005051191926202229
-3.274102658195272e-05
0.0006850980962180302
0.00014339372624120887
0.05869627063152265
-7.946311215344766e-05
0.20304181469971483
0.3884165826025595
0.14875878012306704
0.5750121693525538
0.03543927710811645
0.02653762976933726
